{"learner":{"attributes":{"scikit_learn":"{\"_estimator_type\": \"classifier\"}"},"feature_names":[],"feature_types":[],"gradient_booster":{"model":{"gbtree_model_param":{"num_parallel_tree":"1","num_trees":"200"},"iteration_indptr":[0,1,2,3,4,5,6,7,8,9,10,11,12,13,14,15,16,17,18,19,20,21,22,23,24,25,26,27,28,29,30,31,32,33,34,35,36,37,38,39,40,41,42,43,44,45,46,47,48,49,50,51,52,53,54,55,56,57,58,59,60,61,62,63,64,65,66,67,68,69,70,71,72,73,74,75,76,77,78,79,80,81,82,83,84,85,86,87,88,89,90,91,92,93,94,95,96,97,98,99,100,101,102,103,104,105,106,107,108,109,110,111,112,113,114,115,116,117,118,119,120,121,122,123,124,125,126,127,128,129,130,131,132,133,134,135,136,137,138,139,140,141,142,143,144,145,146,147,148,149,150,151,152,153,154,155,156,157,158,159,160,161,162,163,164,165,166,167,168,169,170,171,172,173,174,175,176,177,178,179,180,181,182,183,184,185,186,187,188,189,190,191,192,193,194,195,196,197,198,199,200],"tree_info":[0,0,0,0,0,0,0,0,0,0,0,0,0,0,0,0,0,0,0,0,0,0,0,0,0,0,0,0,0,0,0,0,0,0,0,0,0,0,0,0,0,0,0,0,0,0,0,0,0,0,0,0,0,0,0,0,0,0,0,0,0,0,0,0,0,0,0,0,0,0,0,0,0,0,0,0,0,0,0,0,0,0,0,0,0,0,0,0,0,0,0,0,0,0,0,0,0,0,0,0,0,0,0,0,0,0,0,0,0,0,0,0,0,0,0,0,0,0,0,0,0,0,0,0,0,0,0,0,0,0,0,0,0,0,0,0,0,0,0,0,0,0,0,0,0,0,0,0,0,0,0,0,0,0,0,0,0,0,0,0,0,0,0,0,0,0,0,0,0,0,0,0,0,0,0,0,0,0,0,0,0,0,0,0,0,0,0,0,0,0,0,0,0,0,0,0,0,0,0,0],"trees":[{"base_weights":[1.913371E-2,9.1440004E-1,-1.762828E0,1.213296E0,1.808644E-1,5.4296476E-1,-2.3639057E0,1.2537675E0,-2.084037E0,-7.5761104E-1,9.757754E-1,-4.1462487E-1,1.0406914E0,5.0740546E-1,-2.5748725E0,-1.3041185E0,1.2762034E0,-2.4045233E-1,-1.0738566E-2,-1.464381E0,9.09177E-1,-2.0214868E-1,1.046715E0,-1.3657788E0,1.1821351E0,1.1932656E0,-1.9655739E-1,-9.7342163E-1,1.2216979E0,1.5838538E-1,-2.6840389E0,-2.1874161E-1,8.953451E-2,1.2900909E0,-1.6613212E-1,-2.0222201E0,2.437615E-1,1.0833989E0,-1.4732017E-1,1.0999936E0,-1.8266343E-1,-2.1858907E0,2.96798E-1,1.4108072E-1,-5.739404E-2,1.3054688E0,-1.2472911E-1,-1.7347642E0,7.7269986E-2,-5.739404E-2,1.3872962E0,-1.0646107E0,1.2140425E0,2.3044929E-1,-2.7372139E0,9.9935904E-2,1.4265464E-1,-2.4061732E-1,-4.40937E-2,1.0888274E-1,-1.3207003E-1,1.2757996E-1,-1.2472911E-1,1.1402162E-1,-1.3543306E-1,-2.4440661E-1,3.591691E-2,1.258298E-1,-1.3570686E-1,-7.6633655E-2,1.3897663E-1,-2.2729266E-1,3.591691E-2,3.591691E-2,1.442754E-1,1.0008265E-1,-2.0424853E-1,1.309334E-1,3.591691E-2,1.215652E-1,-1.4732017E-1,5.6821417E-2,-2.7565175E-1],"categories":[],"categories_nodes":[],"categories_segments":[],"categories_sizes":[],"default_left":[0,0,0,0,0,0,0,0,0,0,0,0,0,0,0,0,0,0,0,0,0,0,0,0,0,0,0,0,0,0,0,0,0,0,0,0,0,0,0,0,0,0,0,0,0,0,0,0,0,0,0,0,0,0,0,0,0,0,0,0,0,0,0,0,0,0,0,0,0,0,0,0,0,0,0,0,0,0,0,0,0,0,0],"id":0,"left_children":[1,3,5,7,9,11,13,15,17,19,21,23,25,27,29,31,33,-1,-1,35,37,-1,39,41,43,45,-1,47,49,51,53,-1,-1,55,-1,57,59,61,-1,63,-1,65,67,-1,-1,69,-1,71,-1,-1,73,75,77,79,81,-1,-1,-1,-1,-1,-1,-1,-1,-1,-1,-1,-1,-1,-1,-1,-1,-1,-1,-1,-1,-1,-1,-1,-1,-1,-1,-1,-1],"loss_changes":[2.0829946E3,1.9031989E2,6.064276E2,8.4987366E1,1.8930705E2,4.3850258E1,2.1121545E2,3.669513E1,4.721157E0,1.3854956E2,3.1307129E1,5.0019108E1,2.99701E1,2.716048E1,9.6793945E1,1.3230819E1,2.684906E1,0E0,0E0,7.879907E1,1.6248243E1,0E0,2.2641632E1,2.8515015E1,5.8026714E0,1.7494469E1,0E0,1.2701808E1,5.8533955E0,1.8526138E1,4.8770996E1,0E0,0E0,2.2509644E1,0E0,3.661566E1,2.9364605E1,1.6600899E1,0E0,1.4668488E1,0E0,9.9492035E0,1.3843235E1,0E0,0E0,1.08246765E1,0E0,7.870056E0,0E0,0E0,3.8632202E-1,1.5610463E1,1.5140915E-1,1.2680933E1,2.1035645E1,0E0,0E0,0E0,0E0,0E0,0E0,0E0,0E0,0E0,0E0,0E0,0E0,0E0,0E0,0E0,0E0,0E0,0E0,0E0,0E0,0E0,0E0,0E0,0E0,0E0,0E0,0E0,0E0],"parents":[2147483647,0,0,1,1,2,2,3,3,4,4,5,5,6,6,7,7,8,8,9,9,10,10,11,11,12,12,13,13,14,14,15,15,16,16,19,19,20,20,22,22,23,23,24,24,25,25,27,27,28,28,29,29,30,30,33,33,35,35,36,36,37,37,39,39,41,41,42,42,45,45,47,47,50,50,51,51,52,52,53,53,54,54],"right_children":[2,4,6,8,10,12,14,16,18,20,22,24,26,28,30,32,34,-1,-1,36,38,-1,40,42,44,46,-1,48,50,52,54,-1,-1,56,-1,58,60,62,-1,64,-1,66,68,-1,-1,70,-1,72,-1,-1,74,76,78,80,82,-1,-1,-1,-1,-1,-1,-1,-1,-1,-1,-1,-1,-1,-1,-1,-1,-1,-1,-1,-1,-1,-1,-1,-1,-1,-1,-1,-1],"split_conditions":[8E0,-7.7568746E-1,6E0,7.68E2,4.6933517E-1,2.7264383E-1,5E0,-8.5004604E-1,5.8130085E-1,4.7448555E-1,-7.439234E-1,3.15117E-1,5.85E2,2.3726511E-1,5E0,4.0234652E-1,1.0108626E0,-2.4045233E-1,-1.0738566E-2,4.1981372E-1,6.172826E-1,-2.0214868E-1,7.56E2,3.3422336E-1,2.8917074E-1,6.7642236E-1,-1.9655739E-1,2.6987994E-1,-4.427665E-1,3.0068862E-1,5E0,-2.1874161E-1,8.953451E-2,2.8161737E-1,-1.6613212E-1,4.3177494E-1,-5.9305495E-1,2.2655022E-1,-1.4732017E-1,3.04297E0,-1.8266343E-1,7.8734094E-1,-3.4931853E-1,1.4108072E-1,-5.739404E-2,-5.720259E-1,-1.2472911E-1,1E1,7.7269986E-2,-5.739404E-2,-5.6064224E-1,2.166761E-2,9.494091E-1,2.1E1,3E0,9.9935904E-2,1.4265464E-1,-2.4061732E-1,-4.40937E-2,1.0888274E-1,-1.3207003E-1,1.2757996E-1,-1.2472911E-1,1.1402162E-1,-1.3543306E-1,-2.4440661E-1,3.591691E-2,1.258298E-1,-1.3570686E-1,-7.6633655E-2,1.3897663E-1,-2.2729266E-1,3.591691E-2,3.591691E-2,1.442754E-1,1.0008265E-1,-2.0424853E-1,1.309334E-1,3.591691E-2,1.215652E-1,-1.4732017E-1,5.6821417E-2,-2.7565175E-1],"split_indices":[11616,6971,3723,7179,6769,8047,9672,6430,136,6409,6970,7300,8061,6265,4479,2,12089,0,0,7876,12386,0,6585,8371,5422,3008,0,6382,517,9460,9600,0,0,5806,0,4600,8546,6797,0,131,0,5554,8824,0,0,2866,0,9717,0,0,14,9425,0,2544,5280,0,0,0,0,0,0,0,0,0,0,0,0,0,0,0,0,0,0,0,0,0,0,0,0,0,0,0,0],"split_type":[0,0,0,0,0,0,0,0,0,0,0,0,0,0,0,0,0,0,0,0,0,0,0,0,0,0,0,0,0,0,0,0,0,0,0,0,0,0,0,0,0,0,0,0,0,0,0,0,0,0,0,0,0,0,0,0,0,0,0,0,0,0,0,0,0,0,0,0,0,0,0,0,0,0,0,0,0,0,0,0,0,0,0],"sum_hessian":[1.3036718E3,8.6804736E2,4.3562442E2,6.1627704E2,2.5177032E2,9.009765E1,3.4552676E2,6.094168E2,6.860227E0,1.15480484E2,1.3628984E2,3.0871021E1,5.9226627E1,2.3553446E1,3.2197333E2,4.802159E0,6.046147E2,5.716856E0,1.1433711E0,8.117935E1,3.4301136E1,2.5154166E0,1.3377443E2,1.943731E1,1.1433712E1,5.6939884E1,2.2867422E0,7.54625E0,1.6007196E1,1.2348409E1,3.096249E2,3.4301136E0,1.3720454E0,6.0232794E2,2.2867422E0,6.105602E1,2.0123333E1,3.247174E1,1.8293939E0,1.3194504E2,1.8293939E0,1.28057575E1,6.6315527E0,1.029034E1,1.1433711E0,5.4881817E1,2.058068E0,5.259507E0,2.2867422E0,1.1433711E0,1.4863825E1,5.716856E0,6.6315527E0,5.4881816E0,3.0413672E2,1.9505913E2,4.072688E2,4.870761E1,1.2348409E1,1.3263105E1,6.860227E0,3.0413673E1,2.058068E0,1.3034431E2,1.6007197E0,1.1662386E1,1.1433711E0,4.3448105E0,2.2867422E0,1.8293939E0,5.305242E1,4.116136E0,1.1433711E0,1.1433711E0,1.3720454E1,1.8293939E0,3.887462E0,5.4881816E0,1.1433711E0,3.6587877E0,1.8293939E0,1.6007197E0,3.02536E2],"tree_param":{"num_deleted":"0","num_feature":"12960","num_nodes":"83","size_leaf_vector":"1"}},{"base_weights":[2.0493615E-2,9.056428E-1,-1.4540933E0,1.1891695E0,3.3077636E-1,1.5220343E-1,-2.0981035E0,-1.4433258E0,1.2149866E0,-7.824967E-1,8.6967576E-1,9.6471816E-1,-6.074196E-1,4.5098796E-1,-2.2385786E0,-1.953764E-1,3.4087185E-2,1.229731E0,-1.4587913E-1,-1.5313835E0,8.869135E-1,-1.8591057E-1,9.503926E-1,1.0636983E0,-1.4246711E-1,-1.4347024E0,5.2781475E-1,-9.816546E-1,1.0275605E0,6.940282E-1,-2.291574E0,1.2433263E0,-1.521125E-1,-2.0317051E0,7.1258014E-1,1.2796477E0,-1.664666E-1,1.02539E0,-1.6803763E0,1.2909153E0,1.430336E-1,-1.9163332E0,4.9457592E-1,1.0057067E0,-1.0288211E0,9.2353165E-2,-1.8665409E-1,-1.0672077E-1,1.2939584E0,-9.45821E-2,1.224998E-1,8.707252E-2,-2.327638E0,1.0035249E-1,1.3624458E-1,-2.2093308E-1,8.280896E-2,1.1705637E-1,-1.6267984E-1,1.08322045E-2,1.4164712E-1,1.1867338E-1,-1.6162221E-1,1.236096E-1,4.0023584E-2,-1.8874903E-1,-5.1038947E-2,-4.084109E-2,1.3432012E-1,7.988765E-2,-1.47322E-1,-2.1718223E-1,6.216376E-2,1.0318684E-1,-1.08606875E-1,1.3749728E-1,-3.678201E-2,9.831438E-2,-1.7826125E-1,1.3579227E-1,3.2541316E-2,1.1161023E-1,-1.319922E-1,-7.3933065E-2,-2.3653261E-1],"categories":[],"categories_nodes":[],"categories_segments":[],"categories_sizes":[],"default_left":[0,0,0,0,0,0,0,0,0,0,0,0,0,0,0,0,0,0,0,0,0,0,0,0,0,0,0,0,0,0,0,0,0,0,0,0,0,0,0,0,0,0,0,0,0,0,0,0,0,0,0,0,0,0,0,0,0,0,0,0,0,0,0,0,0,0,0,0,0,0,0,0,0,0,0,0,0,0,0,0,0,0,0,0,0],"id":1,"left_children":[1,3,5,7,9,11,13,15,17,19,21,23,25,27,29,-1,-1,31,-1,33,35,-1,37,39,-1,41,43,45,47,49,51,53,-1,55,57,59,61,63,65,67,69,71,73,75,77,-1,-1,-1,79,-1,-1,81,83,-1,-1,-1,-1,-1,-1,-1,-1,-1,-1,-1,-1,-1,-1,-1,-1,-1,-1,-1,-1,-1,-1,-1,-1,-1,-1,-1,-1,-1,-1,-1,-1],"loss_changes":[1.6917395E3,1.3161664E2,5.032671E2,3.8591187E1,1.6200723E2,8.703999E1,1.25305664E2,5.8762856E0,2.2976074E1,1.116713E2,4.17807E1,1.761338E1,6.9322136E1,1.6671734E1,5.2745728E1,0E0,0E0,2.1895874E1,0E0,7.024538E1,1.1779152E1,0E0,3.666693E1,1.3607674E1,0E0,4.0438972E1,2.4472408E1,1.1759531E1,9.198618E0,6.91413E0,2.795752E1,1.3852722E1,0E0,2.741423E1,1.4667044E1,3.1288185E0,1.854958E1,2.2270004E1,3.1804276E-1,5.236038E0,1.6203026E1,2.3535934E1,9.006299E0,1.2988615E1,1.3725949E1,0E0,0E0,0E0,3.5609245E-1,0E0,0E0,9.864979E0,1.7331177E1,0E0,0E0,0E0,0E0,0E0,0E0,0E0,0E0,0E0,0E0,0E0,0E0,0E0,0E0,0E0,0E0,0E0,0E0,0E0,0E0,0E0,0E0,0E0,0E0,0E0,0E0,0E0,0E0,0E0,0E0,0E0,0E0],"parents":[2147483647,0,0,1,1,2,2,3,3,4,4,5,5,6,6,7,7,8,8,9,9,10,10,11,11,12,12,13,13,14,14,17,17,19,19,20,20,22,22,23,23,25,25,26,26,27,27,28,28,29,29,30,30,31,31,33,33,34,34,35,35,36,36,37,37,38,38,39,39,40,40,41,41,42,42,43,43,44,44,48,48,51,51,52,52],"right_children":[2,4,6,8,10,12,14,16,18,20,22,24,26,28,30,-1,-1,32,-1,34,36,-1,38,40,-1,42,44,46,48,50,52,54,-1,56,58,60,62,64,66,68,70,72,74,76,78,-1,-1,-1,80,-1,-1,82,84,-1,-1,-1,-1,-1,-1,-1,-1,-1,-1,-1,-1,-1,-1,-1,-1,-1,-1,-1,-1,-1,-1,-1,-1,-1,-1,-1,-1,-1,-1,-1,-1],"split_conditions":[9E0,-7.702623E-1,7E0,-1.1858062E0,3.3203813E-1,-7.548545E-1,7E0,-7.1363753E-1,8.64E2,3.8765076E-1,-8.083944E-1,1.0016282E0,3.5356042E-1,1.9592844E-1,5E0,-1.953764E-1,3.4087185E-2,8.7974447E-1,-1.4587913E-1,4.5876703E-1,-5.6077E-1,-1.8591057E-1,7.35E2,-7.479946E-1,-1.4246711E-1,4.1494226E-1,1.7E1,-4.1797826E-1,-9.738963E-1,-4.1577223E-1,5E0,3.6927527E-1,-1.521125E-1,2.164857E-1,4.9711013E-1,3E0,-6.591643E-1,-6.867635E-1,3.9201733E-1,1.6773526E-1,2.7154183E-1,6.4137566E-1,1.1677498E0,-6.177213E-1,6.599575E-2,9.2353165E-2,-1.8665409E-1,-1.0672077E-1,1.5142034E0,-9.45821E-2,1.224998E-1,-5.865441E-1,5E0,1.0035249E-1,1.3624458E-1,-2.2093308E-1,8.280896E-2,1.1705637E-1,-1.6267984E-1,1.08322045E-2,1.4164712E-1,1.1867338E-1,-1.6162221E-1,1.236096E-1,4.0023584E-2,-1.8874903E-1,-5.1038947E-2,-4.084109E-2,1.3432012E-1,7.988765E-2,-1.47322E-1,-2.1718223E-1,6.216376E-2,1.0318684E-1,-1.08606875E-1,1.3749728E-1,-3.678201E-2,9.831438E-2,-1.7826125E-1,1.3579227E-1,3.2541316E-2,1.1161023E-1,-1.319922E-1,-7.3933065E-2,-2.3653261E-1],"split_indices":[3273,5945,11292,6476,5788,5567,3957,5728,8160,7669,6430,522,5671,9865,8736,0,0,1559,0,6886,6971,0,7710,5396,0,4600,537,10660,8897,9513,5271,7489,0,5267,479,6981,8114,8546,3434,9838,9337,7750,12083,7457,6005,0,0,0,11326,0,0,8060,9582,0,0,0,0,0,0,0,0,0,0,0,0,0,0,0,0,0,0,0,0,0,0,0,0,0,0,0,0,0,0,0,0],"split_type":[0,0,0,0,0,0,0,0,0,0,0,0,0,0,0,0,0,0,0,0,0,0,0,0,0,0,0,0,0,0,0,0,0,0,0,0,0,0,0,0,0,0,0,0,0,0,0,0,0,0,0,0,0,0,0,0,0,0,0,0,0,0,0,0,0,0,0,0,0,0,0,0,0,0,0,0,0,0,0,0,0,0,0,0,0],"sum_hessian":[1.2941152E3,8.0892706E2,4.851882E2,5.410233E2,2.6790378E2,1.3907343E2,3.4611478E2,4.721065E0,5.3630225E2,8.7236404E1,1.8066737E2,6.7066826E1,7.200661E1,1.7961987E1,3.2815277E2,3.5969744E0,1.1240904E0,5.338982E2,2.4040737E0,6.0278522E1,2.6957886E1,4.557579E0,1.7610979E2,6.4931854E1,2.1349707E0,4.1500225E1,3.050638E1,4.9528327E0,1.3009154E1,5.6101217E0,3.2254266E2,5.318178E2,2.0803416E0,4.936625E1,1.0912272E1,1.9480225E1,7.47766E0,1.7182176E2,4.288025E0,5.1756397E1,1.3175457E1,3.3215034E1,8.285191E0,2.36115E1,6.894879E0,1.5569661E0,3.3958664E0,1.128596E0,1.1880558E1,1.1810998E0,4.429022E0,4.7960925E0,3.1774655E2,1.7962883E2,3.52189E2,4.6693504E1,2.6727443E0,9.543545E0,1.3687277E0,2.2248971E0,1.725533E1,3.9614615E0,3.5161986E0,1.2777753E2,4.4044235E1,3.1220875E0,1.1659374E0,1.3416272E0,5.041477E1,9.732094E0,3.4433632E0,3.030827E1,2.9067655E0,6.4424567E0,1.8427335E0,1.8607824E1,5.0036755E0,1.7962345E0,5.0986447E0,1.0767438E1,1.1131207E0,2.8895314E0,1.9065611E0,7.842751E0,3.099038E2],"tree_param":{"num_deleted":"0","num_feature":"12960","num_nodes":"85","size_leaf_vector":"1"}},{"base_weights":[2.090074E-2,8.4810257E-1,-1.2930691E0,1.0916245E0,2.1433496E-1,1.6962615E-1,-1.8401889E0,1.1309668E0,-1.7347028E0,-6.860464E-1,9.6952605E-1,-5.3916115E-1,9.5603615E-1,7.323153E-1,-1.9361347E0,-1.8541558E-1,1.1596496E0,-4.158919E-2,-1.9018339E-1,-1.4192863E0,7.819915E-1,-1.7183809E-1,1.0649983E0,-1.123706E0,1.0718205E0,1.0755737E0,-1.7121035E-1,-1.1126863E-1,1.0881284E0,-3.4068394E-1,-2.0246978E0,8.4049755E-1,1.2610803E0,-1.6570321E0,1.0931705E0,-1.0471829E0,9.7193944E-1,1.1320009E0,-1.6765009E-1,-1.57816E0,4.0921506E-1,1.2549466E0,-7.93321E-2,-1.5042913E-1,1.184672E0,1.3156134E-1,-5.7420786E-2,-1.2332006E0,1.1623896E0,5.089666E-1,-2.0512686E0,2.851238E-2,1.1772934E-1,-9.31784E-2,1.269534E-1,-1.5931634E-2,-1.9773939E-1,1.1957759E-1,3.0504802E-2,3.218328E-2,-1.7533612E-1,1.1116933E-1,-8.969574E-2,1.1710691E-1,-8.577507E-2,5.167922E-2,-1.9055276E-1,9.019636E-2,-1.5621166E-1,1.3562177E-1,-1.6737064E-2,1.3481326E-1,-2.4752298E-2,-1.7483017E-1,5.3961452E-2,1.2569886E-1,3.0094534E-2,-5.0046843E-2,1.05540834E-1,-3.7046403E-2,-2.0705472E-1],"categories":[],"categories_nodes":[],"categories_segments":[],"categories_sizes":[],"default_left":[0,0,0,0,0,0,0,0,0,0,0,0,0,0,0,0,0,0,0,0,0,0,0,0,0,0,0,0,0,0,0,0,0,0,0,0,0,0,0,0,0,0,0,0,0,0,0,0,0,0,0,0,0,0,0,0,0,0,0,0,0,0,0,0,0,0,0,0,0,0,0,0,0,0,0,0,0,0,0,0,0],"id":2,"left_children":[1,3,5,7,9,11,13,15,17,19,21,23,25,27,29,-1,31,-1,-1,33,35,-1,37,39,41,43,-1,-1,45,47,49,51,53,55,57,59,61,63,-1,65,67,69,-1,-1,71,-1,-1,73,75,77,79,-1,-1,-1,-1,-1,-1,-1,-1,-1,-1,-1,-1,-1,-1,-1,-1,-1,-1,-1,-1,-1,-1,-1,-1,-1,-1,-1,-1,-1,-1],"loss_changes":[1.3821366E3,1.20199524E2,3.9345996E2,6.461743E1,1.4879605E2,7.55695E1,8.968555E1,4.978589E1,1.001133E0,1.0870831E2,3.2340492E1,6.849767E1,2.2314716E1,1.0128286E1,4.8062866E1,0E0,1.6798645E1,0E0,0E0,4.1843216E1,1.281049E1,0E0,2.3101288E1,3.75138E1,7.6687527E0,1.92473E1,0E0,0E0,5.2529945E0,2.7388948E1,2.303711E1,2.5110832E1,8.906189E0,2.9251999E1,1.5244913E-1,4.1165276E0,9.163517E0,9.810043E0,0E0,2.9121552E1,1.3935664E1,2.8453655E0,0E0,0E0,1.4402214E1,0E0,0E0,1.2472029E1,2.510872E-1,2.8402896E0,9.715332E0,0E0,0E0,0E0,0E0,0E0,0E0,0E0,0E0,0E0,0E0,0E0,0E0,0E0,0E0,0E0,0E0,0E0,0E0,0E0,0E0,0E0,0E0,0E0,0E0,0E0,0E0,0E0,0E0,0E0,0E0],"parents":[2147483647,0,0,1,1,2,2,3,3,4,4,5,5,6,6,7,7,8,8,9,9,10,10,11,11,12,12,13,13,14,14,16,16,19,19,20,20,22,22,23,23,24,24,25,25,28,28,29,29,30,30,31,31,32,32,33,33,34,34,35,35,36,36,37,37,39,39,40,40,41,41,44,44,47,47,48,48,49,49,50,50],"right_children":[2,4,6,8,10,12,14,16,18,20,22,24,26,28,30,-1,32,-1,-1,34,36,-1,38,40,42,44,-1,-1,46,48,50,52,54,56,58,60,62,64,-1,66,68,70,-1,-1,72,-1,-1,74,76,78,80,-1,-1,-1,-1,-1,-1,-1,-1,-1,-1,-1,-1,-1,-1,-1,-1,-1,-1,-1,-1,-1,-1,-1,-1,-1,-1,-1,-1,-1,-1],"split_conditions":[9E0,-7.6532996E-1,7E0,9.12E2,4.175256E-1,4.306327E-1,5E0,-1.2917418E0,-3.388158E-1,3.9809048E-1,-8.390627E-1,6.313451E-1,7.28E2,4.0235236E-2,5E0,-1.8541558E-1,2.9649094E-1,-4.158919E-2,-1.9018339E-1,6.2707573E-1,-5.146002E-1,-1.7183809E-1,5.4E2,4.3560335E-1,1.9332911E0,-6.8154275E-1,-1.7121035E-1,-1.1126863E-1,1.5657566E0,4.9E1,4E0,3.2962352E-1,-9.090555E-1,-5.9686327E-1,1.2E1,4.1095757E-1,5.4719615E-1,2.8611622E0,-1.6765009E-1,2.0564243E-2,1.8E1,1.8753496E0,-7.93321E-2,-1.5042913E-1,5.3424114E-1,1.3156134E-1,-5.7420786E-2,5.3496784E-1,1.3786812E0,3E0,4E0,2.851238E-2,1.1772934E-1,-9.31784E-2,1.269534E-1,-1.5931634E-2,-1.9773939E-1,1.1957759E-1,3.0504802E-2,3.218328E-2,-1.7533612E-1,1.1116933E-1,-8.969574E-2,1.1710691E-1,-8.577507E-2,5.167922E-2,-1.9055276E-1,9.019636E-2,-1.5621166E-1,1.3562177E-1,-1.6737064E-2,1.3481326E-1,-2.4752298E-2,-1.7483017E-1,5.3961452E-2,1.2569886E-1,3.0094534E-2,-5.0046843E-2,1.05540834E-1,-3.7046403E-2,-2.0705472E-1],"split_indices":[3273,7880,11337,7431,7669,8083,4947,6476,354,6229,6088,6454,8061,2135,10653,0,8758,0,0,7219,3082,0,7953,5671,12604,8023,0,0,2957,5415,5973,5770,8473,10760,3849,3187,9884,2723,0,6545,312,10337,0,0,12215,0,0,7876,9635,87,9582,0,0,0,0,0,0,0,0,0,0,0,0,0,0,0,0,0,0,0,0,0,0,0,0,0,0,0,0,0,0],"split_type":[0,0,0,0,0,0,0,0,0,0,0,0,0,0,0,0,0,0,0,0,0,0,0,0,0,0,0,0,0,0,0,0,0,0,0,0,0,0,0,0,0,0,0,0,0,0,0,0,0,0,0,0,0,0,0,0,0,0,0,0,0,0,0,0,0,0,0,0,0,0,0,0,0,0,0,0,0,0,0,0,0],"sum_hessian":[1.2696014E3,7.793321E2,4.9026932E2,5.6247974E2,2.1685236E2,1.3365086E2,3.5661844E2,5.553492E2,7.1305614E0,9.895919E1,1.17893166E2,7.0460014E1,6.3190845E1,1.2583958E1,3.440345E2,4.679649E0,5.506695E2,1.1943672E0,5.936194E0,6.6018295E1,3.29409E1,3.4607632E0,1.144324E2,5.192243E1,1.8537588E1,6.1052467E1,2.1383803E0,1.690585E0,1.0893373E1,1.8347849E1,3.2568665E2,1.350429E2,4.1562662E2,6.0622272E1,5.39602E0,2.6743402E0,3.026656E1,1.1227547E2,2.1569386E0,4.002654E1,1.1895891E1,1.7178137E1,1.359451E0,1.9581983E0,5.909427E1,9.765564E0,1.1278082E0,1.1624709E1,6.723139E0,3.1916275E0,3.22495E2,5.1676056E1,8.336684E1,1.1766661E0,4.1444995E2,1.0946035E1,4.967624E1,4.316775E0,1.0792453E0,1.0952743E0,1.579066E0,2.8537704E1,1.7288543E0,1.1051695E2,1.7585177E0,5.331238E0,3.46953E1,9.951021E0,1.9448696E0,1.607971E1,1.0984277E0,5.309327E1,6.000998E0,9.018238E0,2.606471E0,5.6441646E0,1.0789741E0,1.1504843E0,2.0411432E0,3.8862839E0,3.1860873E2],"tree_param":{"num_deleted":"0","num_feature":"12960","num_nodes":"81","size_leaf_vector":"1"}},{"base_weights":[2.047513E-2,7.9715806E-1,-1.1729376E0,1.1501063E0,3.8041168E-1,1.366777E-1,-1.6683121E0,-1.3729851E-1,1.1719364E0,-5.6290334E-1,8.1458485E-1,8.678938E-1,-5.066448E-1,4.1926688E-1,-1.7756841E0,1.1948465E0,-3.4215173E-1,-1.3656907E0,7.0104635E-1,-1.683385E-1,8.770912E-1,9.546079E-1,-1.4218372E-1,-1.1273316E0,5.2094936E-1,1.1802596E0,-4.5711166E-1,6.3254464E-1,-1.8162893E0,1.2118386E0,-3.0574283E-1,1.0380238E-1,-1.715713E-1,-1.8113846E0,-1.1235526E-2,-3.190555E-1,1.0177164E0,9.4469845E-1,-9.0408295E-1,3.8185322E-1,1.3042355E0,9.4220304E-1,-1.4346849E0,7.5622857E-1,-1.4095464E-1,1.2520495E-1,2.8382797E-2,-1.380707E0,8.867855E-1,1.1470189E-1,-8.650455E-2,5.6097066E-1,-1.837006E0,1.2233114E-1,-5.1935133E-2,7.8237355E-2,-1.7502785E-1,-1.9365175E-1,9.406026E-2,7.473736E-2,-1.3028818E-1,9.291467E-2,-1.1887347E-1,1.14710405E-1,-9.617551E-2,-7.919711E-2,9.969653E-2,6.2872276E-2,-1.8268806E-1,-1.1876996E-1,7.8425914E-2,1.353795E-1,3.6057371E-3,1.1743784E-1,-1.0893396E-2,1.01066925E-1,-1.6111019E-1,-7.701419E-2,1.0621295E-1,-7.273694E-3,-1.668307E-1,1.0006702E-1,2.6495958E-2,-1.7775098E-2,9.42659E-2,-4.7094297E-2,-1.8669352E-1],"categories":[],"categories_nodes":[],"categories_segments":[],"categories_sizes":[],"default_left":[0,0,0,0,0,0,0,0,0,0,0,0,0,0,0,0,0,0,0,0,0,0,0,0,0,0,0,0,0,0,0,0,0,0,0,0,0,0,0,0,0,0,0,0,0,0,0,0,0,0,0,0,0,0,0,0,0,0,0,0,0,0,0,0,0,0,0,0,0,0,0,0,0,0,0,0,0,0,0,0,0,0,0,0,0,0,0],"id":3,"left_children":[1,3,5,7,9,11,13,-1,15,17,19,21,23,25,27,29,31,33,35,-1,37,39,-1,41,43,45,47,49,51,53,55,-1,-1,57,59,61,63,65,67,69,71,73,75,77,-1,-1,-1,79,81,-1,-1,83,85,-1,-1,-1,-1,-1,-1,-1,-1,-1,-1,-1,-1,-1,-1,-1,-1,-1,-1,-1,-1,-1,-1,-1,-1,-1,-1,-1,-1,-1,-1,-1,-1,-1,-1],"loss_changes":[1.1460205E3,1.0972525E2,3.1645422E2,2.3917297E1,1.4172856E2,6.380396E1,8.003418E1,0E0,1.4356384E1,1.1187276E2,3.8421967E1,1.3947926E1,4.6693848E1,1.2619447E1,3.4066284E1,1.0475708E1,1.4616683E1,4.054033E1,1.4254158E1,0E0,2.87314E1,1.1856796E1,0E0,3.021896E1,1.3740682E1,2.8650093E-1,1.2568064E1,5.8642445E0,1.734668E1,8.422668E0,9.5994005E0,0E0,0E0,1.9228485E1,1.8259941E1,1.3019561E1,9.592106E0,2.1078873E1,1.384574E1,1.6595102E1,2.3330002E0,1.7074203E0,1.8846008E1,1.2735909E1,0E0,0E0,0E0,2.0633392E0,4.160285E-2,0E0,0E0,1.1905863E0,1.2558838E1,0E0,0E0,0E0,0E0,0E0,0E0,0E0,0E0,0E0,0E0,0E0,0E0,0E0,0E0,0E0,0E0,0E0,0E0,0E0,0E0,0E0,0E0,0E0,0E0,0E0,0E0,0E0,0E0,0E0,0E0,0E0,0E0,0E0,0E0],"parents":[2147483647,0,0,1,1,2,2,3,3,4,4,5,5,6,6,8,8,9,9,10,10,11,11,12,12,13,13,14,14,15,15,16,16,17,17,18,18,20,20,21,21,23,23,24,24,25,25,26,26,27,27,28,28,29,29,30,30,33,33,34,34,35,35,36,36,37,37,38,38,39,39,40,40,41,41,42,42,43,43,47,47,48,48,51,51,52,52],"right_children":[2,4,6,8,10,12,14,-1,16,18,20,22,24,26,28,30,32,34,36,-1,38,40,-1,42,44,46,48,50,52,54,56,-1,-1,58,60,62,64,66,68,70,72,74,76,78,-1,-1,-1,80,82,-1,-1,84,86,-1,-1,-1,-1,-1,-1,-1,-1,-1,-1,-1,-1,-1,-1,-1,-1,-1,-1,-1,-1,-1,-1,-1,-1,-1,-1,-1,-1,-1,-1,-1,-1,-1,-1],"split_conditions":[9E0,-8.115218E-1,7E0,-1.228064E0,2.910922E-1,-7.548545E-1,7E0,-1.3729851E-1,7.9790217E-1,3.3371717E-1,-1.2687215E0,6.45E2,4.6306333E-1,-5.900484E-1,5E0,6.86E2,-8.729345E-1,3.290521E-1,2.5128847E-1,-1.683385E-1,7.09874E-1,3.5E1,-1.4218372E-1,3E0,6.4644766E-1,5.5974907E-1,4.8E1,7.8833747E-1,5E0,8.367685E-1,-4.185663E-2,1.0380238E-1,-1.715713E-1,-2.1978118E-1,-5.646799E-1,-2.6805612E-1,1.2284487E0,1.2793905E-1,3E0,2.5736517E-1,2.5955598E0,9.303021E-2,-1.4390758E0,-5.276437E-1,-1.4095464E-1,1.2520495E-1,2.8382797E-2,1.4243288E-1,7.643582E-1,1.1470189E-1,-8.650455E-2,1.4E1,4E0,1.2233114E-1,-5.1935133E-2,7.8237355E-2,-1.7502785E-1,-1.9365175E-1,9.406026E-2,7.473736E-2,-1.3028818E-1,9.291467E-2,-1.1887347E-1,1.14710405E-1,-9.617551E-2,-7.919711E-2,9.969653E-2,6.2872276E-2,-1.8268806E-1,-1.1876996E-1,7.8425914E-2,1.353795E-1,3.6057371E-3,1.1743784E-1,-1.0893396E-2,1.01066925E-1,-1.6111019E-1,-7.701419E-2,1.0621295E-1,-7.273694E-3,-1.668307E-1,1.0006702E-1,2.6495958E-2,-1.7775098E-2,9.42659E-2,-4.7094297E-2,-1.8669352E-1],"split_indices":[3273,5378,11292,6431,5329,5567,3957,0,12377,7435,8915,8376,5428,9473,8736,5955,4757,8119,9586,0,560,6558,0,5055,12053,11110,6567,2354,5838,9164,4019,0,0,6943,9122,7335,3547,3196,5172,6391,12865,10840,7011,545,0,0,0,1109,8101,0,0,1464,9582,0,0,0,0,0,0,0,0,0,0,0,0,0,0,0,0,0,0,0,0,0,0,0,0,0,0,0,0,0,0,0,0,0,0],"split_type":[0,0,0,0,0,0,0,0,0,0,0,0,0,0,0,0,0,0,0,0,0,0,0,0,0,0,0,0,0,0,0,0,0,0,0,0,0,0,0,0,0,0,0,0,0,0,0,0,0,0,0,0,0,0,0,0,0,0,0,0,0,0,0,0,0,0,0,0,0,0,0,0,0,0,0,0,0,0,0,0,0,0,0,0,0,0,0],"sum_hessian":[1.2343884E3,7.47949E2,4.8643936E2,4.0401953E2,3.4392947E2,1.3370068E2,3.527387E2,2.934717E0,4.010848E2,1.0831034E2,2.3561913E2,6.2412277E1,7.128841E1,1.7113083E1,3.356256E2,3.9531403E2,5.770773E0,6.618988E1,4.212046E1,5.1188974E0,2.3050023E2,6.069673E1,1.7155448E0,4.4383095E1,2.690531E1,8.973931E0,8.139152E0,5.3234286E0,3.303022E2,3.9107806E2,4.2359776E0,3.000304E0,2.7704687E0,4.9548286E1,1.6641596E1,9.976198E0,3.214426E1,2.2252362E2,7.9766088E0,2.380004E1,3.6896694E1,5.4720454E0,3.891105E1,2.4524641E1,2.3806684E0,7.94126E0,1.0326711E0,4.8076773E0,3.331474E0,4.136491E0,1.1869379E0,2.6282556E0,3.2767392E2,3.8879483E2,2.283231E0,2.6775026E0,1.5584748E0,4.7676746E1,1.8715425E0,1.0749552E1,5.892043E0,4.068511E0,5.907687E0,3.0566772E1,1.5774891E0,6.0879207E0,2.164357E2,3.1173074E0,4.8593016E0,4.458503E0,1.9341536E1,3.5444054E1,1.4526372E0,4.3860154E0,1.0860299E0,2.3000946E0,3.6610954E1,3.8410628E0,2.0683578E1,1.0924151E0,3.7152622E0,2.3008401E0,1.0306339E0,1.0773841E0,1.5508716E0,7.3839064E0,3.2029E2],"tree_param":{"num_deleted":"0","num_feature":"12960","num_nodes":"87","size_leaf_vector":"1"}},{"base_weights":[1.9976186E-2,7.44344E-1,-1.1034132E0,1.0857795E0,2.6128015E-1,2.4266806E-1,-1.5256639E0,-1.4467107E-1,1.1040616E0,-5.7681847E-1,8.490747E-1,-6.500318E-1,8.558168E-1,1.9506444E-1,-1.6358742E0,1.118806E0,-1.3364469E-1,-1.0978132E0,6.8738043E-1,9.1230637E-1,-1.4234501E0,9.95537E-1,-1.0889709E0,-1.255233E-1,9.623112E-1,-7.4105555E-1,1.0665461E0,8.8105984E-2,-1.6850339E0,1.1363674E0,-6.945756E-1,-1.5242242E0,3.9314547E-1,9.366949E-1,-1.3776125E0,9.647743E-1,-1.2258214E0,-5.7476857E-3,-1.7671432E-1,1.2338386E-1,-5.168548E-2,9.742834E-1,-1.3826585E0,1.0593385E0,-1.0441511E0,-1.441778E0,8.2578653E-1,1.2590474E-1,-4.2229343E-2,7.631375E-1,-1.3870656E-1,4.158972E-1,-1.7117596E0,8.790427E-2,1.2259884E-1,-1.6634494E-1,8.020514E-2,-1.6786903E-1,8.9973055E-2,1.0448456E-1,-1.0431053E-1,1.1409902E-1,-1.520907E-2,-1.8580858E-1,1.0702949E-3,-1.3626768E-1,9.963917E-2,-1.7449428E-1,3.0681133E-2,2.7877424E-2,1.0733247E-1,-1.6873333E-1,1.4916382E-2,1.14130996E-1,-5.4801136E-2,-8.449525E-3,-1.4318381E-1,2.9586574E-2,-1.7364475E-1,9.3571655E-2,2.3981724E-2,-6.366476E-2,1.1644738E-1,1.0586204E-1,-8.7987185E-2,5.9298236E-2,-1.7244786E-1],"categories":[],"categories_nodes":[],"categories_segments":[],"categories_sizes":[],"default_left":[0,0,0,0,0,0,0,0,0,0,0,0,0,0,0,0,0,0,0,0,0,0,0,0,0,0,0,0,0,0,0,0,0,0,0,0,0,0,0,0,0,0,0,0,0,0,0,0,0,0,0,0,0,0,0,0,0,0,0,0,0,0,0,0,0,0,0,0,0,0,0,0,0,0,0,0,0,0,0,0,0,0,0,0,0,0,0],"id":4,"left_children":[1,3,5,7,9,11,13,-1,15,17,19,21,23,25,27,29,-1,31,33,35,37,39,41,-1,43,45,47,49,51,53,55,57,59,61,63,65,67,-1,-1,-1,-1,69,71,73,75,77,79,-1,-1,81,-1,83,85,-1,-1,-1,-1,-1,-1,-1,-1,-1,-1,-1,-1,-1,-1,-1,-1,-1,-1,-1,-1,-1,-1,-1,-1,-1,-1,-1,-1,-1,-1,-1,-1,-1,-1],"loss_changes":[9.7195953E2,1.19486176E2,2.6651703E2,2.1280548E1,1.4927885E2,6.22294E1,6.7941345E1,0E0,1.670398E1,8.315132E1,2.6866241E1,3.4632835E1,1.6321644E1,1.902953E1,2.8558533E1,1.4185364E1,0E0,5.716694E1,2.0403425E1,2.0671295E1,2.3431463E0,4.3509026E0,2.3854588E1,0E0,1.3675709E1,1.3672693E1,3.9675598E0,1.125957E1,1.9015015E1,8.539124E0,8.084682E0,2.7492676E1,2.0355427E1,7.674137E0,2.957632E0,1.3876587E1,4.19627E0,0E0,0E0,0E0,0E0,6.0013294E-2,1.5619907E1,8.805321E0,1.1744003E0,4.7225513E0,4.2860746E-2,0E0,0E0,5.0520663E0,0E0,5.0115557E0,1.046405E1,0E0,0E0,0E0,0E0,0E0,0E0,0E0,0E0,0E0,0E0,0E0,0E0,0E0,0E0,0E0,0E0,0E0,0E0,0E0,0E0,0E0,0E0,0E0,0E0,0E0,0E0,0E0,0E0,0E0,0E0,0E0,0E0,0E0,0E0],"parents":[2147483647,0,0,1,1,2,2,3,3,4,4,5,5,6,6,8,8,9,9,10,10,11,11,12,12,13,13,14,14,15,15,17,17,18,18,19,19,20,20,21,21,22,22,24,24,25,25,26,26,27,27,28,28,29,29,30,30,31,31,32,32,33,33,34,34,35,35,36,36,41,41,42,42,43,43,44,44,45,45,46,46,49,49,51,51,52,52],"right_children":[2,4,6,8,10,12,14,-1,16,18,20,22,24,26,28,30,-1,32,34,36,38,40,42,-1,44,46,48,50,52,54,56,58,60,62,64,66,68,-1,-1,-1,-1,70,72,74,76,78,80,-1,-1,82,-1,84,86,-1,-1,-1,-1,-1,-1,-1,-1,-1,-1,-1,-1,-1,-1,-1,-1,-1,-1,-1,-1,-1,-1,-1,-1,-1,-1,-1,-1,-1,-1,-1,-1,-1,-1],"split_conditions":[7E0,-8.008573E-1,6E0,-1.3256739E0,3.470418E-1,2.9581076E-1,4E0,-1.4467107E-1,8.75E2,4.7082105E-1,8.21042E-1,4E0,-7.661654E-1,3.2E1,5E0,8.7749624E-1,-1.3364469E-1,4.3132305E-1,6.0315096E-1,6.76E2,-3.1849405E-1,9.473556E-1,-4.7141415E-1,-1.255233E-1,6.369185E-1,4.5876703E-1,4.14E2,-5.834773E-1,6E0,2.043333E-1,4.0154952E-1,9.683811E-1,1.05887905E-1,-4.303828E-1,-5.5392712E-2,-1.3658808E0,5.107807E-2,-5.7476857E-3,-1.7671432E-1,1.2338386E-1,-5.168548E-2,3E0,4.411132E-1,6.7103124E-1,2.3667136E-1,3E0,4.0240076E-1,1.2590474E-1,-4.2229343E-2,-3.8514102E-1,-1.3870656E-1,4.7E1,3E0,8.790427E-2,1.2259884E-1,-1.6634494E-1,8.020514E-2,-1.6786903E-1,8.9973055E-2,1.0448456E-1,-1.0431053E-1,1.1409902E-1,-1.520907E-2,-1.8580858E-1,1.0702949E-3,-1.3626768E-1,9.963917E-2,-1.7449428E-1,3.0681133E-2,2.7877424E-2,1.0733247E-1,-1.6873333E-1,1.4916382E-2,1.14130996E-1,-5.4801136E-2,-8.449525E-3,-1.4318381E-1,2.9586574E-2,-1.7364475E-1,9.3571655E-2,2.3981724E-2,-6.366476E-2,1.1644738E-1,1.0586204E-1,-8.7987185E-2,5.9298236E-2,-1.7244786E-1],"split_indices":[11517,5567,3318,6152,5482,10666,10401,0,6954,8236,12143,10086,7654,5415,4137,12314,0,7669,11414,6018,1264,4707,9900,0,443,6886,5946,7817,5946,5806,5788,5450,8192,8618,1750,7547,4,0,0,0,0,12075,7390,3701,336,4929,2624,0,0,12199,0,9267,7359,0,0,0,0,0,0,0,0,0,0,0,0,0,0,0,0,0,0,0,0,0,0,0,0,0,0,0,0,0,0,0,0,0,0],"split_type":[0,0,0,0,0,0,0,0,0,0,0,0,0,0,0,0,0,0,0,0,0,0,0,0,0,0,0,0,0,0,0,0,0,0,0,0,0,0,0,0,0,0,0,0,0,0,0,0,0,0,0,0,0,0,0,0,0,0,0,0,0,0,0,0,0,0,0,0,0,0,0,0,0,0,0,0,0,0,0,0,0,0,0,0,0,0,0],"sum_hessian":[1.1924153E3,7.2516327E2,4.6725198E2,4.241331E2,3.010302E2,1.1167418E2,3.555778E2,2.47988E0,4.216532E2,1.2410109E2,1.7692914E2,4.54468E1,6.622738E1,2.1357082E1,3.342207E2,4.1965936E2,1.9938227E0,8.7976364E1,3.6124725E1,1.727218E2,4.2073336E0,9.302809E0,3.614399E1,2.6624532E0,6.356493E1,1.0368839E1,1.0988243E1,9.244203E0,3.249765E2,4.16004E2,3.6553874E0,6.839363E1,1.9582735E1,3.272063E1,3.4040937E0,1.691205E2,3.601305E0,1.0804455E0,3.126888E0,8.195636E0,1.1071734E0,4.2149734E0,3.1929016E1,6.1083145E1,2.4817843E0,7.2198157E0,3.1490238E0,9.866841E0,1.1214018E0,6.673239E0,2.5709636E0,3.8991404E0,3.2107736E2,1.1025156E2,3.0575244E2,2.1512582E0,1.504129E0,6.458539E1,3.808237E0,1.3657947E1,5.924788E0,2.7510693E1,5.209938E0,2.27751E0,1.1265838E0,1.702406E0,1.6741809E2,2.586649E0,1.0146558E0,1.000908E0,3.2140656E0,2.6547318E1,5.381699E0,5.839506E1,2.688083E0,1.0645678E0,1.4172167E0,1.0462279E0,6.173588E0,2.1489944E0,1.0000293E0,1.3563224E0,5.316917E0,2.728685E0,1.1704555E0,1.5117913E0,3.1956558E2],"tree_param":{"num_deleted":"0","num_feature":"12960","num_nodes":"87","size_leaf_vector":"1"}},{"base_weights":[1.909152E-2,7.09639E-1,-1.0181532E0,1.0326478E0,2.2609065E-1,3.1116387E-1,-1.4001707E0,-1.387346E-1,1.0507184E0,-7.7721775E-1,6.9409955E-1,-2.7186802E-1,1.039785E0,7.3983565E-2,-1.5132629E0,1.0671258E0,-1.12161614E-1,-1.2616073E0,4.8630142E-1,9.439913E-1,-1.7372016E-3,-7.445567E-1,9.081716E-1,1.1305698E0,-1.2707463E-1,-7.442417E-1,9.483898E-1,1.6934168E-1,-1.5627494E0,1.0843085E0,-7.313252E-1,-1.5363504E0,4.7655445E-1,-2.769776E-1,1.076068E0,1.0235156E-1,1.0525385E0,6.691197E-1,-8.5630774E-1,-1.2118766E0,6.101267E-1,1.1293122E0,-1.0988934E-1,1.2277149E0,-8.010777E-2,-1.3301891E0,8.3725375E-1,1.20588005E-1,-5.427393E-2,-7.75619E-1,9.956505E-1,6.634196E-1,-1.5826675E0,7.736077E-2,1.1742413E-1,7.309629E-2,-1.5392983E-1,-1.635081E-1,5.3281028E-2,1.1362225E-1,-8.122564E-2,8.022166E-2,-1.0812938E-1,-5.066089E-2,1.24431245E-1,5.1919665E-2,-1.5890244E-1,1.0897259E-1,-4.846557E-2,1.2127904E-1,-2.223822E-3,8.3094604E-2,-1.18209355E-1,9.442171E-2,-1.4019544E-1,-1.1644047E-1,9.641112E-2,-2.8611843E-2,1.24384396E-1,1.2916057E-1,-8.442332E-3,6.838072E-2,-1.628061E-1,9.5776334E-2,2.115117E-2,7.528219E-2,-1.444182E-1,1.07806124E-1,2.9364616E-2,9.783629E-2,-5.7162964E-3,7.7250324E-2,-1.5930633E-1],"categories":[],"categories_nodes":[],"categories_segments":[],"categories_sizes":[],"default_left":[0,0,0,0,0,0,0,0,0,0,0,0,0,0,0,0,0,0,0,0,0,0,0,0,0,0,0,0,0,0,0,0,0,0,0,0,0,0,0,0,0,0,0,0,0,0,0,0,0,0,0,0,0,0,0,0,0,0,0,0,0,0,0,0,0,0,0,0,0,0,0,0,0,0,0,0,0,0,0,0,0,0,0,0,0,0,0,0,0,0,0,0,0],"id":5,"left_children":[1,3,5,7,9,11,13,-1,15,17,19,21,23,25,27,29,-1,31,33,35,37,39,41,43,-1,45,47,49,51,53,55,57,59,61,63,65,67,69,71,73,75,77,-1,79,-1,81,83,-1,-1,85,87,89,91,-1,-1,-1,-1,-1,-1,-1,-1,-1,-1,-1,-1,-1,-1,-1,-1,-1,-1,-1,-1,-1,-1,-1,-1,-1,-1,-1,-1,-1,-1,-1,-1,-1,-1,-1,-1,-1,-1,-1,-1],"loss_changes":[8.217565E2,1.0733917E2,2.3329279E2,1.9502197E1,1.306543E2,4.4113304E1,5.9523132E1,0E0,1.5815186E1,5.484867E1,3.2950317E1,3.3088028E1,1.1100296E1,1.9554281E1,2.7827332E1,1.3387909E1,0E0,3.1455368E1,1.1677582E1,1.2629372E1,2.9849192E1,2.735238E1,8.817195E0,9.400932E0,0E0,1.4244429E1,5.712928E0,8.861302E0,1.5312622E1,1.03836975E1,6.38799E0,1.2268677E1,9.037458E0,1.1122099E1,4.4820976E0,1.2835226E1,7.581375E0,1.0991034E1,1.3568281E1,1.427039E1,8.313318E0,2.9283752E0,0E0,3.7226105E0,0E0,7.5475674E0,1.3256216E-1,0E0,0E0,6.6000576E0,2.8502464E-2,8.6317694E-1,9.043579E0,0E0,0E0,0E0,0E0,0E0,0E0,0E0,0E0,0E0,0E0,0E0,0E0,0E0,0E0,0E0,0E0,0E0,0E0,0E0,0E0,0E0,0E0,0E0,0E0,0E0,0E0,0E0,0E0,0E0,0E0,0E0,0E0,0E0,0E0,0E0,0E0,0E0,0E0,0E0,0E0],"parents":[2147483647,0,0,1,1,2,2,3,3,4,4,5,5,6,6,8,8,9,9,10,10,11,11,12,12,13,13,14,14,15,15,17,17,18,18,19,19,20,20,21,21,22,22,23,23,25,25,26,26,27,27,28,28,29,29,30,30,31,31,32,32,33,33,34,34,35,35,36,36,37,37,38,38,39,39,40,40,41,41,43,43,45,45,46,46,49,49,50,50,51,51,52,52],"right_children":[2,4,6,8,10,12,14,-1,16,18,20,22,24,26,28,30,-1,32,34,36,38,40,42,44,-1,46,48,50,52,54,56,58,60,62,64,66,68,70,72,74,76,78,-1,80,-1,82,84,-1,-1,86,88,90,92,-1,-1,-1,-1,-1,-1,-1,-1,-1,-1,-1,-1,-1,-1,-1,-1,-1,-1,-1,-1,-1,-1,-1,-1,-1,-1,-1,-1,-1,-1,-1,-1,-1,-1,-1,-1,-1,-1,-1,-1],"split_conditions":[7E0,-7.8122485E-1,5E0,-1.3332211E0,2.6023737E-1,4.5648396E-1,4E0,-1.387346E-1,6.7E2,4.227995E-1,7E0,5.1126456E-1,7.56E2,2.075597E-1,5E0,8.7749624E-1,-1.12161614E-1,6.051159E-1,3.1999055E-1,-5.604437E-1,-6.865971E-1,4.8201555E-1,2.3E1,7.181205E-1,-1.2707463E-1,6.2E1,1.3523744E0,-2.3739403E-1,4E0,2.2828805E-1,2.758999E-1,-2.6066887E-1,9.123717E-1,-3.0099198E-1,-1.1073184E0,-5.840644E-1,1.4597596E0,6.400794E-1,4E0,2.3353811E-2,-3.706745E-1,-5.386928E-1,-1.0988934E-1,2.1541076E0,-8.010777E-2,6E0,-6.4070445E-1,1.20588005E-1,-5.427393E-2,-8.530077E-2,-4.8438114E-1,1.6865492E-1,4E0,7.736077E-2,1.1742413E-1,7.309629E-2,-1.5392983E-1,-1.635081E-1,5.3281028E-2,1.1362225E-1,-8.122564E-2,8.022166E-2,-1.0812938E-1,-5.066089E-2,1.24431245E-1,5.1919665E-2,-1.5890244E-1,1.0897259E-1,-4.846557E-2,1.2127904E-1,-2.223822E-3,8.3094604E-2,-1.18209355E-1,9.442171E-2,-1.4019544E-1,-1.1644047E-1,9.641112E-2,-2.8611843E-2,1.24384396E-1,1.2916057E-1,-8.442332E-3,6.838072E-2,-1.628061E-1,9.5776334E-2,2.115117E-2,7.528219E-2,-1.444182E-1,1.07806124E-1,2.9364616E-2,9.783629E-2,-5.7162964E-3,7.7250324E-2,-1.5930633E-1],"split_indices":[11526,5567,3372,8294,5437,7399,11382,0,8673,8272,3624,6463,6765,1289,4929,12314,0,7642,5671,441,6593,8254,681,290,0,5460,11128,2659,8016,8164,1382,7618,1623,10175,8832,7808,3655,11570,4191,5780,1218,1462,0,12586,0,3930,7277,0,0,12630,8294,221,6387,0,0,0,0,0,0,0,0,0,0,0,0,0,0,0,0,0,0,0,0,0,0,0,0,0,0,0,0,0,0,0,0,0,0,0,0,0,0,0,0],"split_type":[0,0,0,0,0,0,0,0,0,0,0,0,0,0,0,0,0,0,0,0,0,0,0,0,0,0,0,0,0,0,0,0,0,0,0,0,0,0,0,0,0,0,0,0,0,0,0,0,0,0,0,0,0,0,0,0,0,0,0,0,0,0,0,0,0,0,0,0,0,0,0,0,0,0,0,0,0,0,0,0,0,0,0,0,0,0,0,0,0,0,0,0,0],"sum_hessian":[1.1452684E3,6.87728E2,4.5754034E2,4.1162695E2,2.761011E2,1.0217714E2,3.553632E2,2.4892948E0,4.0913763E2,8.761439E1,1.8848672E2,5.7107464E1,4.5069675E1,2.534447E1,3.3001874E2,4.065756E2,2.5620463E0,6.3335323E1,2.4279062E1,1.384201E2,5.0066624E1,4.1037933E1,1.6069532E1,4.385714E1,1.2125349E0,1.3169745E1,1.2174724E1,9.3595705E0,3.2065915E2,4.0312122E2,3.4543943E0,5.4790894E1,8.544432E0,1.0813951E1,1.3465112E1,1.6034752E1,1.22385345E2,2.816975E1,2.1896872E1,3.059062E1,1.0447312E1,1.4868623E1,1.2009089E0,4.210409E1,1.7530477E0,9.725377E0,3.4443684E0,1.0545082E1,1.629642E0,4.3949184E0,4.9646516E0,2.5570698E0,3.1810208E2,9.264665E1,3.1047455E2,1.2633207E0,2.1910737E0,5.2495823E1,2.2950692E0,5.7299795E0,2.8144522E0,4.6190004E0,6.1949506E0,1.1006002E0,1.23645115E1,1.3420306E1,2.6144452E0,1.1977878E2,2.606565E0,1.53469715E1,1.282278E1,3.2927954E0,1.8604076E1,2.1569004E0,2.843372E1,1.356704E0,9.090609E0,1.0009019E0,1.3867721E1,4.016407E1,1.9400231E0,1.0861259E0,8.639252E0,2.4432309E0,1.0011376E0,1.2990514E0,3.0958672E0,3.9636538E0,1.0009977E0,1.5304297E0,1.02664E0,1.0757931E0,3.170263E2],"tree_param":{"num_deleted":"0","num_feature":"12960","num_nodes":"93","size_leaf_vector":"1"}},{"base_weights":[1.888418E-2,6.67425E-1,-9.6283686E-1,9.1331077E-1,7.394384E-2,5.027031E-1,-1.2622175E0,9.48637E-1,-1.390859E-1,-6.8592703E-1,7.305131E-1,-4.8454887E-1,9.6800524E-1,3.0746442E-1,-1.4068196E0,-1.2618842E0,9.696518E-1,-1.173236E0,5.852681E-1,8.2080466E-1,-1.3655577E0,-1.0323912E0,9.071244E-1,1.0774401E0,-5.9432924E-1,9.461041E-1,-5.576789E-1,2.4345785E-1,-1.448282E0,-3.194697E-2,-1.4493307E-1,6.911248E-1,1.1018335E0,-1.4737829E0,3.423193E-1,9.383975E-1,-1.1155442E0,8.942393E-1,-1.0862422E0,-1.5731792E-1,-3.4587342E-2,-1.3912706E0,5.8256876E-1,1.1035613E-1,-1.8338937E-2,1.1506867E0,-3.5491922E-1,6.564468E-2,-1.2567037E-1,1.1329607E0,-6.671304E-2,-1.2113043E0,6.571159E-1,-1.0091826E0,1.09358154E-1,-1.4896963E0,3.7805907E-2,9.054996E-2,-2.2588214E-2,-1.08226314E-1,1.1128541E-1,-1.6595474E-1,8.0683286E-4,1.05511904E-1,-5.9096325E-2,1.20368555E-1,-5.5090286E-2,4.1404613E-3,-1.5192613E-1,-1.2802313E-1,9.398796E-2,-1.3701132E-1,-8.883017E-3,4.5310557E-2,-1.5852001E-1,9.319355E-2,-2.2466686E-2,1.2095932E-1,-3.3270437E-3,-5.0976217E-2,-2.1902218E-3,1.22950986E-1,-1.4533013E-2,-1.5426044E-1,6.893347E-2,-5.0284147E-2,1.046171E-1,-1.377797E-1,5.219488E-3,9.0453856E-2,-1.5060948E-1,-9.382441E-2,8.0742866E-2],"categories":[],"categories_nodes":[],"categories_segments":[],"categories_sizes":[],"default_left":[0,0,0,0,0,0,0,0,0,0,0,0,0,0,0,0,0,0,0,0,0,0,0,0,0,0,0,0,0,0,0,0,0,0,0,0,0,0,0,0,0,0,0,0,0,0,0,0,0,0,0,0,0,0,0,0,0,0,0,0,0,0,0,0,0,0,0,0,0,0,0,0,0,0,0,0,0,0,0,0,0,0,0,0,0,0,0,0,0,0,0,0,0],"id":6,"left_children":[1,3,5,7,9,11,13,15,-1,17,19,21,23,25,27,29,31,33,35,37,39,41,43,45,47,49,51,53,55,-1,-1,57,59,61,63,65,67,69,71,-1,-1,73,75,-1,-1,77,79,-1,-1,81,-1,83,85,87,-1,89,91,-1,-1,-1,-1,-1,-1,-1,-1,-1,-1,-1,-1,-1,-1,-1,-1,-1,-1,-1,-1,-1,-1,-1,-1,-1,-1,-1,-1,-1,-1,-1,-1,-1,-1,-1,-1],"loss_changes":[6.987235E2,9.636856E1,1.9218759E2,3.9345764E1,9.762708E1,3.4817192E1,8.278339E1,2.2625183E1,0E0,5.6906425E1,2.0978096E1,1.9706066E1,9.386299E0,1.7890001E1,2.3095947E1,3.8016272E-1,1.6061096E1,3.0539192E1,1.6552645E1,1.5145615E1,4.526949E-1,1.13195915E1,1.8060341E0,5.4612045E0,4.1331205E0,6.317341E0,1.1892158E1,1.0690375E1,2.002069E1,0E0,0E0,2.9641243E1,8.62262E0,1.5212654E1,8.422636E0,9.32412E0,2.349503E0,1.0930008E1,1.0687213E0,0E0,0E0,6.1302013E0,1.3379241E0,0E0,0E0,3.2521324E0,1.4906147E-1,0E0,0E0,2.2650738E0,0E0,7.0060863E0,3.0248535E0,1.6993413E0,0E0,1.3753906E1,8.096777E0,0E0,0E0,0E0,0E0,0E0,0E0,0E0,0E0,0E0,0E0,0E0,0E0,0E0,0E0,0E0,0E0,0E0,0E0,0E0,0E0,0E0,0E0,0E0,0E0,0E0,0E0,0E0,0E0,0E0,0E0,0E0,0E0,0E0,0E0,0E0,0E0],"parents":[2147483647,0,0,1,1,2,2,3,3,4,4,5,5,6,6,7,7,9,9,10,10,11,11,12,12,13,13,14,14,15,15,16,16,17,17,18,18,19,19,20,20,21,21,22,22,23,23,24,24,25,25,26,26,27,27,28,28,31,31,32,32,33,33,34,34,35,35,36,36,37,37,38,38,41,41,42,42,45,45,46,46,49,49,51,51,52,52,53,53,55,55,56,56],"right_children":[2,4,6,8,10,12,14,16,-1,18,20,22,24,26,28,30,32,34,36,38,40,42,44,46,48,50,52,54,56,-1,-1,58,60,62,64,66,68,70,72,-1,-1,74,76,-1,-1,78,80,-1,-1,82,-1,84,86,88,-1,90,92,-1,-1,-1,-1,-1,-1,-1,-1,-1,-1,-1,-1,-1,-1,-1,-1,-1,-1,-1,-1,-1,-1,-1,-1,-1,-1,-1,-1,-1,-1,-1,-1,-1,-1,-1,-1],"split_conditions":[7E0,-7.6184005E-1,5E0,9.52E2,4.166252E-1,2.342745E-1,5E0,-1.29819E0,-1.390859E-1,4.2679405E-1,7E2,5.7840914E-1,5.998577E-1,-5.8366656E-1,4E0,-1.1772415E-2,3.04813E-1,5.2706164E-1,9.048441E-1,7.925461E-1,4.4918144E-3,1.8702821E-1,1.4991626E-2,2.5506837E0,2.2876239E-1,2.1125534E0,4.9912268E-1,2.1450962E-1,9.5E1,-3.194697E-2,-1.4493307E-1,-8.0132425E-1,-1.0880917E0,5.084825E-1,-4.1524252E-1,5.34556E-1,-4.6807566E-1,-7.1347636E-1,2.2727123E-1,-1.5731792E-1,-3.4587342E-2,-5.2134216E-1,5.4258657E-1,1.1035613E-1,-1.8338937E-2,2.526412E0,6E0,6.564468E-2,-1.2567037E-1,5.393051E-1,-6.671304E-2,5.322558E-1,-5.776402E-1,3.9532825E-1,1.09358154E-1,4E0,3.2E1,9.054996E-2,-2.2588214E-2,-1.08226314E-1,1.1128541E-1,-1.6595474E-1,8.0683286E-4,1.05511904E-1,-5.9096325E-2,1.20368555E-1,-5.5090286E-2,4.1404613E-3,-1.5192613E-1,-1.2802313E-1,9.398796E-2,-1.3701132E-1,-8.883017E-3,4.5310557E-2,-1.5852001E-1,9.319355E-2,-2.2466686E-2,1.2095932E-1,-3.3270437E-3,-5.0976217E-2,-2.1902218E-3,1.22950986E-1,-1.4533013E-2,-1.5426044E-1,6.893347E-2,-5.0284147E-2,1.046171E-1,-1.377797E-1,5.219488E-3,9.0453856E-2,-1.5060948E-1,-9.382441E-2,8.0742866E-2],"split_indices":[11517,7952,4002,7269,7867,10783,9951,8285,0,8191,6738,7345,443,5297,9987,410,5932,7543,12466,11072,2740,9245,9427,12272,770,2534,7318,8353,9924,0,0,6179,275,5869,4271,10336,2408,8833,1759,0,0,1049,802,0,0,2497,141,0,0,9956,0,4321,7447,477,0,7530,9303,0,0,0,0,0,0,0,0,0,0,0,0,0,0,0,0,0,0,0,0,0,0,0,0,0,0,0,0,0,0,0,0,0,0,0,0],"split_type":[0,0,0,0,0,0,0,0,0,0,0,0,0,0,0,0,0,0,0,0,0,0,0,0,0,0,0,0,0,0,0,0,0,0,0,0,0,0,0,0,0,0,0,0,0,0,0,0,0,0,0,0,0,0,0,0,0,0,0,0,0,0,0,0,0,0,0,0,0,0,0,0,0,0,0,0,0,0,0,0,0,0,0,0,0,0,0,0,0,0,0,0,0],"sum_hessian":[1.0954286E3,6.598447E2,4.3558392E2,4.6616745E2,1.9367723E2,7.37722E1,3.618117E2,4.5970776E2,6.4596853E0,8.975541E1,1.0392183E2,2.3618479E1,5.015372E1,3.042428E1,3.3138742E2,3.7730994E0,4.5593466E2,6.493849E1,2.4816921E1,1.0021339E2,3.7084408E0,1.7132364E1,6.4861135E0,4.7160683E1,2.9930387E0,1.7449593E1,1.2974687E1,8.002495E0,3.2338495E2,1.0746193E0,2.69848E0,1.4874173E2,3.0719293E2,5.4214813E1,1.0723677E1,2.09214E1,3.8955202E0,9.700895E1,3.2044358E0,2.6301057E0,1.078335E0,1.413072E1,3.0016448E0,5.485952E0,1.0001619E0,4.5053432E1,2.1072495E0,1.0393537E0,1.9536848E0,1.5905062E1,1.5445311E0,8.437648E0,4.537039E0,3.1596751E0,4.842819E0,3.1461484E2,8.77011E0,1.20568245E2,2.8173489E1,1.0542543E0,3.0613867E2,4.8068985E1,6.145828E0,6.0060086E0,4.717668E0,1.7920935E1,3.0004656E0,1.2398558E0,2.6556644E0,1.4381815E0,9.557077E1,2.203605E0,1.0008307E0,1.2172788E0,1.2913442E1,1.9871433E0,1.0145016E0,4.2897465E1,2.155967E0,1.0761383E0,1.0311112E0,1.4823598E1,1.0814637E0,7.345611E0,1.0920365E0,1.0660803E0,3.4709587E0,2.1239202E0,1.0357549E0,1.7717636E0,3.1284308E2,3.7699249E0,5.0001855E0],"tree_param":{"num_deleted":"0","num_feature":"12960","num_nodes":"93","size_leaf_vector":"1"}},{"base_weights":[1.7744798E-2,6.455125E-1,-8.990581E-1,9.761719E-1,2.8237426E-1,1.1357176E-1,-1.2696123E0,-1.0741853E-1,9.9685115E-1,-2.933928E-1,7.6558423E-1,-4.6776414E-1,7.162549E-1,5.8499587E-1,-1.3354001E0,1.0286533E0,-1.8108223E-1,-9.350956E-1,5.832783E-1,-1.3562077E-1,8.309248E-1,-9.575001E-1,5.7566035E-1,-7.2616196E-1,8.933741E-1,-8.279533E-2,9.0456057E-1,5.810026E-1,-1.3717183E0,1.0429853E0,-7.0807594E-1,6.976915E-1,-1.6137608E0,-1.303042E0,3.938471E-1,8.500737E-1,-5.939922E-1,8.7775016E-1,-1.078232E0,2.5898851E-3,-1.4707738E0,1.0593352E0,-4.6830434E-1,5.6150652E-2,-1.4052348E-1,1.0374341E0,-3.0705833E-1,1.13508224E-1,-5.4294106E-2,1.013305E0,-7.729205E-2,2.3599815E-1,-1.4047375E0,1.06189765E-1,-3.3629667E-2,-1.777147E-1,6.59258E-2,1.0164203E-1,-4.9007073E-2,-4.6009168E-2,-1.89811E-1,-1.5042542E-1,4.65784E-3,6.96216E-2,-1.0691978E-1,9.371868E-2,-8.640837E-2,-1.2526035E-1,6.390238E-2,1.02535725E-1,3.2251064E-2,-3.140358E-2,-1.22416615E-1,-8.553136E-2,8.5083984E-2,-1.6018379E-1,2.4034666E-2,1.1679011E-1,-1.5384801E-2,8.596919E-2,-1.1109129E-1,1.1276033E-1,-5.163474E-2,8.5325725E-2,-1.0643729E-1,2.7591525E-2,1.1298316E-1,-8.927969E-2,9.490933E-2,6.1369874E-2,-1.4209388E-1],"categories":[],"categories_nodes":[],"categories_segments":[],"categories_sizes":[],"default_left":[0,0,0,0,0,0,0,0,0,0,0,0,0,0,0,0,0,0,0,0,0,0,0,0,0,0,0,0,0,0,0,0,0,0,0,0,0,0,0,0,0,0,0,0,0,0,0,0,0,0,0,0,0,0,0,0,0,0,0,0,0,0,0,0,0,0,0,0,0,0,0,0,0,0,0,0,0,0,0,0,0,0,0,0,0,0,0,0,0,0,0],"id":7,"left_children":[1,3,5,7,9,11,13,-1,15,17,19,21,23,25,27,29,31,33,35,-1,37,39,41,43,45,-1,47,49,51,53,55,57,59,61,63,65,67,69,71,73,75,77,79,-1,-1,81,83,-1,-1,85,-1,87,89,-1,-1,-1,-1,-1,-1,-1,-1,-1,-1,-1,-1,-1,-1,-1,-1,-1,-1,-1,-1,-1,-1,-1,-1,-1,-1,-1,-1,-1,-1,-1,-1,-1,-1,-1,-1,-1,-1],"loss_changes":[6.020891E2,7.428253E1,1.5969086E2,1.4833435E1,8.2948944E1,4.0565845E1,3.8771057E1,0E0,1.2243744E1,7.727777E1,2.3578117E1,3.072762E1,1.5153147E1,5.87918E0,2.1746948E1,8.543274E0,1.2849446E1,3.9209557E1,1.880417E1,0E0,1.5046288E1,1.9994034E1,1.0336296E1,6.7006416E0,9.140396E0,0E0,3.867704E0,4.471064E0,1.6029114E1,8.47995E0,5.7937803E0,2.9474034E0,3.8705063E-1,1.69636E1,8.675202E0,7.963764E0,1.0019615E1,1.2331528E1,8.669901E-2,1.1738078E1,6.313591E0,1.9741335E0,6.8123317E0,0E0,0E0,6.9954796E0,6.389257E0,0E0,0E0,1.3581038E-1,0E0,6.3266263E0,1.0351929E1,0E0,0E0,0E0,0E0,0E0,0E0,0E0,0E0,0E0,0E0,0E0,0E0,0E0,0E0,0E0,0E0,0E0,0E0,0E0,0E0,0E0,0E0,0E0,0E0,0E0,0E0,0E0,0E0,0E0,0E0,0E0,0E0,0E0,0E0,0E0,0E0,0E0,0E0],"parents":[2147483647,0,0,1,1,2,2,3,3,4,4,5,5,6,6,8,8,9,9,10,10,11,11,12,12,13,13,14,14,15,15,16,16,17,17,18,18,20,20,21,21,22,22,23,23,24,24,26,26,27,27,28,28,29,29,30,30,31,31,32,32,33,33,34,34,35,35,36,36,37,37,38,38,39,39,40,40,41,41,42,42,45,45,46,46,49,49,51,51,52,52],"right_children":[2,4,6,8,10,12,14,-1,16,18,20,22,24,26,28,30,32,34,36,-1,38,40,42,44,46,-1,48,50,52,54,56,58,60,62,64,66,68,70,72,74,76,78,80,-1,-1,82,84,-1,-1,86,-1,88,90,-1,-1,-1,-1,-1,-1,-1,-1,-1,-1,-1,-1,-1,-1,-1,-1,-1,-1,-1,-1,-1,-1,-1,-1,-1,-1,-1,-1,-1,-1,-1,-1,-1,-1,-1,-1,-1,-1],"split_conditions":[9E0,-8.115218E-1,7E0,-9.317524E-1,3.6954626E-1,4.139739E-1,5E0,-1.0741853E-1,7.354219E-1,3.0833927E-1,-7.9430616E-1,4.4704655E-1,-6.2320954E-1,4.0235236E-2,1.3829671E-2,2.2163706E0,5.1785487E-1,3.8589692E-1,7E0,-1.3562077E-1,7.26E2,3.884277E-2,1.3E1,7E0,5.2636683E-1,-8.279533E-2,1.7308093E0,2E1,2.6583467E-2,6.86E2,-2.4839748E-2,-8.2596076E-1,2.2213612E-2,4.6476617E-1,5.161506E-1,6.875751E-1,5.714405E-1,-6.378893E-1,-3.0598456E-1,1.6947983E-1,6.522881E-1,6.1052996E-1,-4.9757367E-1,5.6150652E-2,-1.4052348E-1,2.886141E0,1.3E1,1.13508224E-1,-5.4294106E-2,-1.03809424E-1,-7.729205E-2,1.4359899E-1,3E0,1.06189765E-1,-3.3629667E-2,-1.777147E-1,6.59258E-2,1.0164203E-1,-4.9007073E-2,-4.6009168E-2,-1.89811E-1,-1.5042542E-1,4.65784E-3,6.96216E-2,-1.0691978E-1,9.371868E-2,-8.640837E-2,-1.2526035E-1,6.390238E-2,1.02535725E-1,3.2251064E-2,-3.140358E-2,-1.22416615E-1,-8.553136E-2,8.5083984E-2,-1.6018379E-1,2.4034666E-2,1.1679011E-1,-1.5384801E-2,8.596919E-2,-1.1109129E-1,1.1276033E-1,-5.163474E-2,8.5325725E-2,-1.0643729E-1,2.7591525E-2,1.1298316E-1,-8.927969E-2,9.490933E-2,6.1369874E-2,-1.4209388E-1],"split_indices":[3273,5378,11337,6430,7894,6463,4947,0,12341,8182,6088,8101,6169,2135,5330,7362,1154,7318,3471,0,8016,6500,375,636,11936,0,725,1905,4610,5955,292,8285,3793,6463,2405,524,9424,8330,166,6913,7678,12521,1985,0,0,12874,9519,0,0,1984,0,7228,6099,0,0,0,0,0,0,0,0,0,0,0,0,0,0,0,0,0,0,0,0,0,0,0,0,0,0,0,0,0,0,0,0,0,0,0,0,0,0],"split_type":[0,0,0,0,0,0,0,0,0,0,0,0,0,0,0,0,0,0,0,0,0,0,0,0,0,0,0,0,0,0,0,0,0,0,0,0,0,0,0,0,0,0,0,0,0,0,0,0,0,0,0,0,0,0,0,0,0,0,0,0,0,0,0,0,0,0,0,0,0,0,0,0,0,0,0,0,0,0,0,0,0,0,0,0,0,0,0,0,0,0,0],"sum_hessian":[1.0441221E3,6.199298E2,4.241922E2,3.2359177E2,2.9633807E2,1.1382663E2,3.1036557E2,2.7223654E0,3.208694E2,1.3539796E2,1.609401E2,5.8053383E1,5.577325E1,1.036195E1,3.0000363E2,3.1255762E2,8.311785E0,7.813692E1,5.7261044E1,4.2178736E0,1.5672223E2,3.956549E1,1.848789E1,5.760583E0,5.001267E1,1.6178367E0,8.744113E0,5.3007593E0,2.9470285E2,3.1039557E2,2.1620286E0,5.469766E0,2.8420188E0,6.120929E1,1.6927626E1,4.6908478E1,1.0352566E1,1.5349768E2,3.2245493E0,1.4129988E1,2.5435505E1,1.262427E1,5.8636203E0,2.0487807E0,3.711802E0,4.477513E1,5.237536E0,7.729057E0,1.0150564E0,4.208561E0,1.0921981E0,5.80708E0,2.8889578E2,3.064241E2,3.9714885E0,1.0451472E0,1.1168814E0,4.4262614E0,1.0435044E0,1.0796571E0,1.7623618E0,5.3168015E1,8.041277E0,1.4462732E1,2.4648945E0,4.5071236E1,1.8372436E0,6.737739E0,3.614827E0,1.2059226E2,3.290542E1,1.0224268E0,2.2021224E0,7.0208793E0,7.109108E0,2.3685192E1,1.7503128E0,1.1621598E1,1.0026726E0,1.8019491E0,4.061671E0,4.25785E1,2.196635E0,2.018387E0,3.2191489E0,1.033885E0,3.174676E0,2.1506705E0,3.6564093E0,2.0067368E0,2.8688904E2],"tree_param":{"num_deleted":"0","num_feature":"12960","num_nodes":"91","size_leaf_vector":"1"}},{"base_weights":[1.6541142E-2,6.0915685E-1,-8.596171E-1,9.3307394E-1,1.9176157E-1,2.649825E-1,-1.1896366E0,-1.1842825E-1,9.5181286E-1,-5.843514E-1,6.30676E-1,-2.3601803E-1,9.336182E-1,2.6783891E-2,-1.2922666E0,9.6742266E-1,-9.316471E-2,-1.0223631E0,5.6423163E-1,8.692889E-1,2.7533297E-3,-6.2059456E-1,9.211584E-1,1.0294569E0,-1.13837026E-1,-6.692858E-1,8.103782E-1,7.5390466E-2,-1.3404856E0,9.9872184E-1,-4.4514135E-2,-1.3164315E0,2.4419202E-1,9.481187E-1,-3.384795E-1,-3.8287422E-1,9.482453E-1,4.8377E-1,-9.114917E-1,-9.3405867E-1,5.4318917E-1,1.1590488E-1,-4.077692E-2,1.1341971E0,-7.634368E-2,-1.0698274E0,4.663366E-1,1.0675433E0,-4.1234035E-2,8.52457E-1,-8.9055747E-1,9.690029E-2,-1.3606709E0,1.0169532E-1,-6.493988E-2,-1.3742998E-1,9.0970986E-2,-1.4388672E-1,7.275916E-2,8.049826E-2,-1.0220684E-1,1.1161431E-1,-3.0494263E-2,7.2374955E-2,-1.0269489E-1,7.422649E-2,-1.3340752E-1,9.874984E-2,-1.1348158E-1,6.46616E-2,-1.3520534E-1,6.506196E-2,-1.478883E-1,3.1023895E-2,-1.2226961E-1,9.954291E-2,-1.0550528E-1,1.18472256E-1,-3.2138955E-2,-1.4510348E-1,3.9195996E-2,-4.553717E-2,8.852844E-2,2.609337E-2,1.125479E-1,1.06016874E-1,-1.2624486E-2,3.964189E-2,-1.3095382E-1,-1.3716774E-1,5.4886788E-2],"categories":[],"categories_nodes":[],"categories_segments":[],"categories_sizes":[],"default_left":[0,0,0,0,0,0,0,0,0,0,0,0,0,0,0,0,0,0,0,0,0,0,0,0,0,0,0,0,0,0,0,0,0,0,0,0,0,0,0,0,0,0,0,0,0,0,0,0,0,0,0,0,0,0,0,0,0,0,0,0,0,0,0,0,0,0,0,0,0,0,0,0,0,0,0,0,0,0,0,0,0,0,0,0,0,0,0,0,0,0,0],"id":8,"left_children":[1,3,5,7,9,11,13,-1,15,17,19,21,23,25,27,29,-1,31,33,35,37,39,41,43,-1,45,47,49,51,53,55,57,59,61,63,65,67,69,71,73,75,-1,-1,77,-1,79,81,83,-1,85,87,-1,89,-1,-1,-1,-1,-1,-1,-1,-1,-1,-1,-1,-1,-1,-1,-1,-1,-1,-1,-1,-1,-1,-1,-1,-1,-1,-1,-1,-1,-1,-1,-1,-1,-1,-1,-1,-1,-1,-1],"loss_changes":[5.164391E2,8.003697E1,1.4926077E2,1.43714905E1,8.910865E1,3.099489E1,3.879178E1,0E0,1.0645416E1,4.818112E1,2.5001488E1,2.42983E1,9.026085E0,1.4251738E1,1.8982727E1,1.0470917E1,0E0,2.5967209E1,9.596744E0,1.2318459E1,2.1090788E1,1.5323513E1,4.8042383E0,8.063595E0,0E0,6.8025856E0,4.300352E0,8.788791E0,1.4213898E1,1.025647E1,1.4997379E1,1.5071068E1,1.0635082E1,4.3498783E0,7.122855E0,9.429159E0,1.0445259E1,1.0267886E1,1.5617555E1,1.2002729E1,7.736285E0,0E0,0E0,3.0736275E0,0E0,6.446845E0,2.0673854E0,1.9334126E-1,0E0,1.4428754E0,3.3544526E0,0E0,6.5249634E0,0E0,0E0,0E0,0E0,0E0,0E0,0E0,0E0,0E0,0E0,0E0,0E0,0E0,0E0,0E0,0E0,0E0,0E0,0E0,0E0,0E0,0E0,0E0,0E0,0E0,0E0,0E0,0E0,0E0,0E0,0E0,0E0,0E0,0E0,0E0,0E0,0E0,0E0],"parents":[2147483647,0,0,1,1,2,2,3,3,4,4,5,5,6,6,8,8,9,9,10,10,11,11,12,12,13,13,14,14,15,15,17,17,18,18,19,19,20,20,21,21,22,22,23,23,25,25,26,26,27,27,28,28,29,29,30,30,31,31,32,32,33,33,34,34,35,35,36,36,37,37,38,38,39,39,40,40,43,43,45,45,46,46,47,47,49,49,50,50,52,52],"right_children":[2,4,6,8,10,12,14,-1,16,18,20,22,24,26,28,30,-1,32,34,36,38,40,42,44,-1,46,48,50,52,54,56,58,60,62,64,66,68,70,72,74,76,-1,-1,78,-1,80,82,84,-1,86,88,-1,90,-1,-1,-1,-1,-1,-1,-1,-1,-1,-1,-1,-1,-1,-1,-1,-1,-1,-1,-1,-1,-1,-1,-1,-1,-1,-1,-1,-1,-1,-1,-1,-1,-1,-1,-1,-1,-1,-1],"split_conditions":[7E0,-8.008573E-1,5E0,-1.2975717E0,2.8887865E-1,4.5648396E-1,4E0,-1.1842825E-1,6.7E2,4.1470248E-1,-7.0601594E-1,5.48683E-1,7.56E2,3.47232E-1,5E0,7.8158355E-1,-9.316471E-2,4.5845813E-1,-6.320436E-1,-1.0672883E0,-5.8929414E-1,5.237712E-1,6.9339305E-1,6.9523454E-1,-1.13837026E-1,3.1182623E-1,1.5380536E0,-5.927805E-1,3E0,2.497327E0,3.724927E-1,2.8689566E-1,5.612511E-1,5.902929E-1,-1.9862942E-1,4E0,5.1733623E0,1.5783854E0,-5.449634E-1,2.813157E-2,2.1E1,1.1590488E-1,-4.077692E-2,3.3340614E0,-7.634368E-2,4.8271564E-1,2.4673982E-1,-6.03187E-1,-4.1234035E-2,4.319036E-1,1E1,9.690029E-2,1.2293183E0,1.0169532E-1,-6.493988E-2,-1.3742998E-1,9.0970986E-2,-1.4388672E-1,7.275916E-2,8.049826E-2,-1.0220684E-1,1.1161431E-1,-3.0494263E-2,7.2374955E-2,-1.0269489E-1,7.422649E-2,-1.3340752E-1,9.874984E-2,-1.1348158E-1,6.46616E-2,-1.3520534E-1,6.506196E-2,-1.478883E-1,3.1023895E-2,-1.2226961E-1,9.954291E-2,-1.0550528E-1,1.18472256E-1,-3.2138955E-2,-1.4510348E-1,3.9195996E-2,-4.553717E-2,8.852844E-2,2.609337E-2,1.125479E-1,1.06016874E-1,-1.2624486E-2,3.964189E-2,-1.3095382E-1,-1.3716774E-1,5.4886788E-2],"split_indices":[11526,5567,3372,7547,5455,7399,10518,0,8673,7669,7880,7003,6765,4240,3993,10487,0,6256,7421,12537,8348,6454,4324,353,0,464,10211,9437,6720,4639,8569,5024,9786,9588,10344,4758,12549,9387,10553,6437,942,0,0,12595,0,5167,6463,8167,0,236,11553,0,6202,0,0,0,0,0,0,0,0,0,0,0,0,0,0,0,0,0,0,0,0,0,0,0,0,0,0,0,0,0,0,0,0,0,0,0,0,0,0],"split_type":[0,0,0,0,0,0,0,0,0,0,0,0,0,0,0,0,0,0,0,0,0,0,0,0,0,0,0,0,0,0,0,0,0,0,0,0,0,0,0,0,0,0,0,0,0,0,0,0,0,0,0,0,0,0,0,0,0,0,0,0,0,0,0,0,0,0,0,0,0,0,0,0,0,0,0,0,0,0,0,0,0,0,0,0,0,0,0,0,0,0,0],"sum_hessian":[9.926257E2,5.923064E2,4.003193E2,3.3280194E2,2.5950446E2,9.086791E1,3.094514E2,2.373868E0,3.3042807E2,9.3623245E1,1.6588121E2,5.231554E1,3.8552376E1,2.4134676E1,2.853167E2,3.281944E2,2.2336614E0,6.78562E1,2.576704E1,1.1992491E2,4.59563E1,3.961393E1,1.2701611E1,3.7328903E1,1.223473E0,1.2858395E1,1.1276281E1,9.69753E0,2.7561917E2,3.183606E2,9.833809E0,5.5038094E1,1.28181095E1,1.8043541E1,7.7235003E0,6.8851237E0,1.1303979E2,3.0421385E1,1.5534914E1,3.1363573E1,8.250357E0,1.0881545E1,1.8200661E0,3.5615643E1,1.7132592E0,9.548509E0,3.309886E0,9.421615E0,1.854667E0,5.4393125E0,4.258218E0,1.9808172E0,2.7363837E2,3.152562E2,3.1043956E0,3.9244936E0,5.9093156E0,5.2206993E1,2.8311021E0,9.136221E0,3.6818879E0,1.6006481E1,2.0370603E0,3.0171463E0,4.7063537E0,3.2548E0,3.6303234E0,1.1146529E2,1.5745045E0,2.8537735E1,1.8836498E0,4.1000876E0,1.1434827E1,5.8913765E0,2.5472197E1,6.7247014E0,1.5256549E0,3.460069E1,1.0149531E0,7.579317E0,1.9691918E0,1.0071527E0,2.3027334E0,1.0001984E0,8.421416E0,4.4183564E0,1.020956E0,1.0590377E0,3.1991801E0,2.7235025E2,1.288126E0],"tree_param":{"num_deleted":"0","num_feature":"12960","num_nodes":"91","size_leaf_vector":"1"}},{"base_weights":[1.5651027E-2,5.852014E-1,-8.158663E-1,2.2119957E-1,8.925745E-1,1.6836455E-1,-1.1391972E0,-4.1857222E-1,6.847662E-1,-1.1133553E0,9.334099E-1,-4.425282E-1,6.942652E-1,3.828064E-1,-1.2164134E0,-8.6597085E-1,4.4046757E-1,2.4650984E-1,1.0007424E0,-2.854004E-2,-1.2123362E-1,1.0382257E0,6.234198E-1,-9.375615E-1,6.289379E-1,8.26858E-1,-1.0351136E0,-6.820924E-1,8.776689E-1,-1.8523727E-1,-1.2824237E0,-1.139255E0,6.735293E-1,7.574162E-1,-5.5438477E-1,-2.476094E-1,9.292478E-1,-7.375164E-2,1.0416073E0,1.0585767E0,-1.0448382E-1,-1.3093631E-1,8.064832E-1,5.703392E-1,-1.2243146E0,9.6929264E-1,-8.5302524E-2,9.202384E-1,-1.1957341E-1,-1.16991594E-1,-3.068073E-2,-1.216833E-1,7.3894076E-2,1.1166228E-1,-3.4538787E-2,-7.125933E-1,8.270506E-1,4.8514718E-1,-1.3069791E0,-1.292263E-1,6.633123E-2,9.9107526E-2,-8.373708E-2,9.675496E-2,-7.750109E-2,9.004208E-2,-1.264609E-1,3.995898E-2,-9.567298E-2,-1.0022678E-1,1.05026305E-1,2.609024E-2,1.1418068E-1,1.07056454E-1,-7.339483E-2,-1.8120117E-1,3.588928E-2,9.9739015E-2,1.1432738E-2,9.9815436E-2,-7.058566E-2,7.514182E-2,-1.3620934E-1,-5.7329565E-2,1.16102174E-1,1.07520334E-1,-6.107255E-3,7.8023225E-2,-9.9465095E-2,-2.1244815E-2,1.05603516E-1,-5.2558895E-2,9.569854E-2,3.60081E-2,-1.3200812E-1],"categories":[],"categories_nodes":[],"categories_segments":[],"categories_sizes":[],"default_left":[0,0,0,0,0,0,0,0,0,0,0,0,0,0,0,0,0,0,0,0,0,0,0,0,0,0,0,0,0,0,0,0,0,0,0,0,0,0,0,0,0,0,0,0,0,0,0,0,0,0,0,0,0,0,0,0,0,0,0,0,0,0,0,0,0,0,0,0,0,0,0,0,0,0,0,0,0,0,0,0,0,0,0,0,0,0,0,0,0,0,0,0,0,0,0],"id":9,"left_children":[1,3,5,7,9,11,13,15,17,19,21,23,25,27,29,31,33,35,37,-1,-1,39,41,43,45,47,49,51,53,55,57,59,61,63,65,67,69,-1,71,73,-1,75,77,79,81,83,-1,85,-1,-1,-1,-1,-1,-1,-1,87,89,91,93,-1,-1,-1,-1,-1,-1,-1,-1,-1,-1,-1,-1,-1,-1,-1,-1,-1,-1,-1,-1,-1,-1,-1,-1,-1,-1,-1,-1,-1,-1,-1,-1,-1,-1,-1,-1],"loss_changes":[4.4679938E2,6.244638E1,1.2224106E2,7.670426E1,2.5877914E1,3.105519E1,3.4408142E1,4.2227093E1,2.049559E1,1.8716717E-1,9.026428E0,2.4398174E1,1.2738609E1,8.348219E0,1.8488617E1,3.1029575E1,1.2385884E1,2.184713E1,6.927429E0,0E0,0E0,1.0474472E1,1.0840321E1,1.4147299E1,8.283435E0,1.0295837E1,4.695654E-2,4.872093E0,3.447712E0,1.0049088E1,1.184903E1,1.7807564E1,6.3339853E0,1.015353E1,1.1209014E1,1.7805447E1,7.390465E0,0E0,6.361641E0,5.4992676E0,0E0,1.38588E1,8.170143E0,3.7904E0,8.223991E0,4.3597364E0,0E0,7.2285957E0,0E0,0E0,0E0,0E0,0E0,0E0,0E0,5.9079494E0,1.7792435E0,2.53921E0,6.0476685E0,0E0,0E0,0E0,0E0,0E0,0E0,0E0,0E0,0E0,0E0,0E0,0E0,0E0,0E0,0E0,0E0,0E0,0E0,0E0,0E0,0E0,0E0,0E0,0E0,0E0,0E0,0E0,0E0,0E0,0E0,0E0,0E0,0E0,0E0,0E0,0E0],"parents":[2147483647,0,0,1,1,2,2,3,3,4,4,5,5,6,6,7,7,8,8,9,9,10,10,11,11,12,12,13,13,14,14,15,15,16,16,17,17,18,18,21,21,22,22,23,23,24,24,25,25,26,26,27,27,28,28,29,29,30,30,31,31,32,32,33,33,34,34,35,35,36,36,38,38,39,39,41,41,42,42,43,43,44,44,45,45,47,47,55,55,56,56,57,57,58,58],"right_children":[2,4,6,8,10,12,14,16,18,20,22,24,26,28,30,32,34,36,38,-1,-1,40,42,44,46,48,50,52,54,56,58,60,62,64,66,68,70,-1,72,74,-1,76,78,80,82,84,-1,86,-1,-1,-1,-1,-1,-1,-1,88,90,92,94,-1,-1,-1,-1,-1,-1,-1,-1,-1,-1,-1,-1,-1,-1,-1,-1,-1,-1,-1,-1,-1,-1,-1,-1,-1,-1,-1,-1,-1,-1,-1,-1,-1,-1,-1,-1],"split_conditions":[9E0,4.461225E-1,5E0,3.555039E-1,-8.982767E-1,3.3127046E-1,4E0,4.451113E-1,3.670881E-1,-6.041591E-1,4E0,3.6E1,7.141608E-1,1.9863318E-1,4E0,5.4327124E-1,1.2243551E0,3.8251537E-1,-7.533548E-1,-2.854004E-2,-1.2123362E-1,5.2678256E0,-3.7090328E-1,3E0,3.01E2,7.3E2,2.2386992E-1,1.1339303E0,1.6E1,7E1,4E0,5.0079536E-1,7E0,4.8555943E-1,2.8423816E-1,3.4357812E-2,-5.134117E-1,-7.375164E-2,-5.113261E-1,1.625797E0,-1.0448382E-1,-5.081842E-1,-6.184805E-1,2.6094532E-1,1.4372822E-2,-4.879533E-1,-8.5302524E-2,-2.9946452E-1,-1.1957341E-1,-1.16991594E-1,-3.068073E-2,-1.216833E-1,7.3894076E-2,1.1166228E-1,-3.4538787E-2,5E0,-8.7683207E-1,1.1E1,4E0,-1.292263E-1,6.633123E-2,9.9107526E-2,-8.373708E-2,9.675496E-2,-7.750109E-2,9.004208E-2,-1.264609E-1,3.995898E-2,-9.567298E-2,-1.0022678E-1,1.05026305E-1,2.609024E-2,1.1418068E-1,1.07056454E-1,-7.339483E-2,-1.8120117E-1,3.588928E-2,9.9739015E-2,1.1432738E-2,9.9815436E-2,-7.058566E-2,7.514182E-2,-1.3620934E-1,-5.7329565E-2,1.16102174E-1,1.07520334E-1,-6.107255E-3,7.8023225E-2,-9.9465095E-2,-2.1244815E-2,1.05603516E-1,-5.2558895E-2,9.569854E-2,3.60081E-2,-1.3200812E-1],"split_indices":[3273,7507,11193,9199,7888,8065,3813,7066,6976,531,12786,6522,12089,9856,11247,8092,4082,5428,8626,0,0,12567,3334,3804,8664,7701,4284,435,2292,6468,5829,7300,1302,794,725,6986,11155,0,801,11970,0,90,7070,3497,6149,10858,0,6764,0,0,0,0,0,0,0,5847,8726,888,8016,0,0,0,0,0,0,0,0,0,0,0,0,0,0,0,0,0,0,0,0,0,0,0,0,0,0,0,0,0,0,0,0,0,0,0,0],"split_type":[0,0,0,0,0,0,0,0,0,0,0,0,0,0,0,0,0,0,0,0,0,0,0,0,0,0,0,0,0,0,0,0,0,0,0,0,0,0,0,0,0,0,0,0,0,0,0,0,0,0,0,0,0,0,0,0,0,0,0,0,0,0,0,0,0,0,0,0,0,0,0,0,0,0,0,0,0,0,0,0,0,0,0,0,0,0,0,0,0,0,0,0,0,0,0],"sum_hessian":[9.414207E2,5.58898E2,3.825227E2,2.5666556E2,3.0223248E2,9.470787E1,2.8781485E2,1.0787857E2,1.4878697E2,5.5058966E0,2.967266E2,4.3886868E1,5.0821003E1,1.3705662E1,2.7410916E2,7.092952E1,3.694905E1,6.3078217E1,8.570876E1,1.0026153E0,4.5032816E0,2.1999228E2,7.67343E1,3.010355E1,1.3783317E1,4.7686703E1,3.1343012E0,4.2283316E0,9.47733E0,1.67203E1,2.573889E2,6.0457413E1,1.0472107E1,2.8202667E1,8.746384E0,3.696372E1,2.6114496E1,1.5770772E0,8.413168E1,2.1835086E2,1.6414217E0,1.5040619E1,6.169368E1,4.6519837E0,2.5451567E1,1.1490332E1,2.2929845E0,4.61032E1,1.5835029E0,2.1331282E0,1.001173E0,3.1766455E0,1.0516862E0,8.001136E0,1.4761941E0,1.1187946E1,5.5323553E0,3.2696843E0,2.5411919E2,5.598806E1,4.4693527E0,8.9377165E0,1.5343902E0,2.5125904E1,3.0767617E0,2.7813458E0,5.965038E0,1.955384E1,1.740988E1,1.1103367E0,2.500416E1,9.979582E0,7.41521E1,2.1730038E2,1.0504701E0,2.784623E0,1.2255996E1,4.801064E1,1.3683041E1,3.6472085E0,1.0047749E0,1.3688338E0,2.4082733E1,1.0502481E0,1.04400835E1,3.9733025E1,6.3701715E0,1.4972652E0,9.6906805E0,1.0117283E0,4.520627E0,1.0043418E0,2.2653427E0,1.7751352E0,2.5234406E2],"tree_param":{"num_deleted":"0","num_feature":"12960","num_nodes":"95","size_leaf_vector":"1"}},{"base_weights":[1.4982546E-2,5.456125E-1,-7.978742E-1,8.1713814E-1,8.649446E-2,3.1961313E-1,-1.0712632E0,-1.100474E0,8.4500134E-1,-6.243113E-1,5.580983E-1,-2.3773433E-1,8.1400055E-1,3.2798836E-1,-1.1823486E0,-3.1666245E-2,-1.2271793E-1,8.748126E-1,-9.7124946E-1,-1.1121389E0,6.100651E-1,7.0979553E-1,-4.575662E-1,-7.203327E-1,5.0044453E-1,9.565007E-1,-1.01284444E-1,-5.4478455E-1,8.727241E-1,1.5458293E-1,-1.2227964E0,5.568898E-1,9.90214E-1,1.3191146E-2,-1.2433507E-1,-1.2607484E0,5.771109E-1,-7.97484E-1,8.200312E-1,7.7110344E-1,-1.2779646E-1,9.643333E-2,-8.972833E-1,1.00514665E-1,-1.0508195E0,9.233043E-1,-4.2159045E-1,1.0442039E0,-5.5099994E-2,-1.2728008E0,8.876362E-2,-2.720919E-1,1.1459301E-1,8.1099963E-1,-9.4587885E-2,-3.1466883E-1,-1.2680657E0,7.97178E-2,-3.2626312E-2,-8.311381E-2,1.010671E-1,-1.4139257E-1,-1.487613E-2,9.73781E-2,-5.8309246E-2,3.832771E-2,-1.4474057E-1,1.02808096E-1,-8.53209E-2,9.09885E-2,1.7971125E-2,2.7051294E-2,-1.4008206E-1,-1.3370687E-1,4.4637483E-2,-2.5094083E-2,1.1025341E-1,5.4706763E-2,-1.10762514E-1,1.155216E-1,-1.9532105E-2,-3.2042854E-2,-1.4037703E-1,6.475913E-2,-9.85451E-2,-3.025198E-3,9.878653E-2,4.479703E-2,-1.1352463E-1,-1.2863024E-1,3.919929E-2],"categories":[],"categories_nodes":[],"categories_segments":[],"categories_sizes":[],"default_left":[0,0,0,0,0,0,0,0,0,0,0,0,0,0,0,0,0,0,0,0,0,0,0,0,0,0,0,0,0,0,0,0,0,0,0,0,0,0,0,0,0,0,0,0,0,0,0,0,0,0,0,0,0,0,0,0,0,0,0,0,0,0,0,0,0,0,0,0,0,0,0,0,0,0,0,0,0,0,0,0,0,0,0,0,0,0,0,0,0,0,0],"id":10,"left_children":[1,3,5,7,9,11,13,15,17,19,21,23,25,27,29,-1,-1,31,33,35,37,39,41,43,45,47,-1,49,51,53,55,57,59,-1,-1,61,63,65,67,69,-1,-1,71,-1,73,75,77,79,-1,81,-1,83,-1,85,-1,87,89,-1,-1,-1,-1,-1,-1,-1,-1,-1,-1,-1,-1,-1,-1,-1,-1,-1,-1,-1,-1,-1,-1,-1,-1,-1,-1,-1,-1,-1,-1,-1,-1,-1,-1],"loss_changes":[3.8561258E2,6.735849E1,1.0822131E2,1.9083878E1,6.810566E1,1.9530632E1,4.4521637E1,1.3780594E-1,1.9013367E1,4.9508385E1,1.912753E1,1.2388071E1,1.070896E1,1.0776261E1,1.4425537E1,0E0,0E0,1.157692E1,1.932373E0,1.5407196E1,7.633193E0,1.3972744E1,1.1160791E1,1.2931794E1,5.823159E0,5.232189E0,0E0,1.0454556E1,4.6044035E0,6.9930406E0,1.0110809E1,1.9427553E1,9.828903E0,0E0,0E0,8.997963E0,3.0595727E0,3.296249E0,8.202579E0,8.3727E0,0E0,0E0,8.079308E0,0E0,8.296783E0,2.35357E0,3.974173E0,4.853363E0,0E0,3.4092903E-1,0E0,2.903145E0,0E0,9.13244E-1,0E0,8.937402E0,7.8662415E0,0E0,0E0,0E0,0E0,0E0,0E0,0E0,0E0,0E0,0E0,0E0,0E0,0E0,0E0,0E0,0E0,0E0,0E0,0E0,0E0,0E0,0E0,0E0,0E0,0E0,0E0,0E0,0E0,0E0,0E0,0E0,0E0,0E0,0E0],"parents":[2147483647,0,0,1,1,2,2,3,3,4,4,5,5,6,6,7,7,8,8,9,9,10,10,11,11,12,12,13,13,14,14,17,17,18,18,19,19,20,20,21,21,22,22,23,23,24,24,25,25,27,27,28,28,29,29,30,30,31,31,32,32,35,35,36,36,37,37,38,38,39,39,42,42,44,44,45,45,46,46,47,47,49,49,51,51,53,53,55,55,56,56],"right_children":[2,4,6,8,10,12,14,16,18,20,22,24,26,28,30,-1,-1,32,34,36,38,40,42,44,46,48,-1,50,52,54,56,58,60,-1,-1,62,64,66,68,70,-1,-1,72,-1,74,76,78,80,-1,82,-1,84,-1,86,-1,88,90,-1,-1,-1,-1,-1,-1,-1,-1,-1,-1,-1,-1,-1,-1,-1,-1,-1,-1,-1,-1,-1,-1,-1,-1,-1,-1,-1,-1,-1,-1,-1,-1,-1,-1],"split_conditions":[7E0,-8.099032E-1,5E0,-1.29819E0,3.092817E-1,4.143088E-1,4E0,-1.7684504E-1,7.85E2,3.5687545E-1,5.390325E-1,4.7604546E-1,6.48E2,3.015473E-1,4E0,-3.1666245E-2,-1.2271793E-1,2.1661744E-1,-2.3284599E-1,6.127429E-1,-4.4455534E-1,6.8E2,7.584998E-2,2.0007012E-2,5.494787E-1,4.455398E-1,-1.01284444E-1,3.6E1,-3.7389278E-1,2.3842704E-1,5E0,3.4654018E-2,-1.2162379E0,1.3191146E-2,-1.2433507E-1,7.7E1,1.2022783E0,-4.8379925E-1,5.80071E-1,-6.3638896E-1,-1.2779646E-1,9.643333E-2,8.238663E-2,1.00514665E-1,-3.368101E-1,2E0,5.4673475E-1,1.7374915E0,-5.5099994E-2,2.3241146E-1,8.876362E-2,4E0,1.1459301E-1,1.5671071E-1,-9.4587885E-2,-5.797671E-1,1.8E2,7.97178E-2,-3.2626312E-2,-8.311381E-2,1.010671E-1,-1.4139257E-1,-1.487613E-2,9.73781E-2,-5.8309246E-2,3.832771E-2,-1.4474057E-1,1.02808096E-1,-8.53209E-2,9.09885E-2,1.7971125E-2,2.7051294E-2,-1.4008206E-1,-1.3370687E-1,4.4637483E-2,-2.5094083E-2,1.1025341E-1,5.4706763E-2,-1.10762514E-1,1.155216E-1,-1.9532105E-2,-3.2042854E-2,-1.4037703E-1,6.475913E-2,-9.85451E-2,-3.025198E-3,9.878653E-2,4.479703E-2,-1.1352463E-1,-1.2863024E-1,3.919929E-2],"split_indices":[11670,7952,3822,8285,7867,7498,9672,2957,7341,8200,12377,8776,8556,7606,4704,0,0,5761,1516,7174,12838,7710,8426,8768,1927,6358,0,4821,1570,10776,10023,5762,7322,0,0,5820,11372,11084,11720,6854,0,0,5942,0,7222,4362,608,3191,0,9820,0,798,0,7957,0,7331,9717,0,0,0,0,0,0,0,0,0,0,0,0,0,0,0,0,0,0,0,0,0,0,0,0,0,0,0,0,0,0,0,0,0,0],"split_type":[0,0,0,0,0,0,0,0,0,0,0,0,0,0,0,0,0,0,0,0,0,0,0,0,0,0,0,0,0,0,0,0,0,0,0,0,0,0,0,0,0,0,0,0,0,0,0,0,0,0,0,0,0,0,0,0,0,0,0,0,0,0,0,0,0,0,0,0,0,0,0,0,0,0,0,0,0,0,0,0,0,0,0,0,0,0,0,0,0,0,0],"sum_hessian":[8.9200696E2,5.3989453E2,3.5211243E2,3.3876608E2,2.011284E2,6.917756E1,2.8293488E2,4.3004913E0,3.344656E2,8.009087E1,1.2103753E2,3.276222E1,3.6415337E1,2.0666286E1,2.622686E2,1.0853863E0,3.2151048E0,3.2957443E2,4.891171E0,5.7475494E1,2.2615377E1,1.0557087E2,1.5466664E1,1.9825258E1,1.293696E1,3.42223E1,2.193037E0,7.9418325E0,1.2724454E1,7.618861E0,2.5464973E2,8.932258E1,2.4025186E2,1.0696747E0,3.8214962E0,5.3061172E1,4.4143233E0,2.5724304E0,2.0042948E1,1.0300596E2,2.5649085E0,3.3714464E0,1.2095218E1,2.8586693E0,1.6966589E1,8.868397E0,4.0685625E0,3.2631214E1,1.5910871E0,5.339505E0,2.602327E0,2.4523675E0,1.0272086E1,4.9370103E0,2.6818507E0,1.2468815E1,2.4218091E2,7.0294266E1,1.9028313E1,2.228323E0,2.3802353E2,4.6398235E1,6.6629353E0,3.4093556E0,1.0049677E0,1.0589072E0,1.5135231E0,1.8169355E1,1.8735921E0,8.299179E1,2.001417E1,3.7834563E0,8.311762E0,1.4333175E1,2.6334147E0,1.1213872E0,7.7470098E0,1.7708074E0,2.2977552E0,3.0011406E1,2.6198084E0,1.0621855E0,4.27732E0,1.1115367E0,1.3408308E0,1.0016541E0,3.9353564E0,6.697906E0,5.770909E0,2.3977205E2,2.4088697E0],"tree_param":{"num_deleted":"0","num_feature":"12960","num_nodes":"91","size_leaf_vector":"1"}},{"base_weights":[1.3845245E-2,5.2378064E-1,-7.6334023E-1,1.3876031E-1,7.965052E-1,1.4940621E-1,-1.0808338E0,-4.4306713E-1,7.138524E-1,-1.0302922E0,8.381119E-1,7.783966E-1,-3.6848196E-1,5.2005994E-1,-1.1509999E0,-9.197988E-1,4.2069545E-1,8.2073647E-1,-2.589739E-1,1.4975888E-2,-1.2537934E-1,8.6900604E-1,-9.670108E-1,9.181357E-1,-6.0827017E-1,-7.7292633E-1,4.1169012E-1,-4.6986872E-1,8.89494E-1,1.0300574E-1,-1.1978775E0,-1.2008525E0,4.302444E-1,1.0363187E0,-1.5810086E-1,-7.7492535E-1,8.7022465E-1,6.59146E-1,-1.2482706E0,8.822116E-1,-1.0735171E-1,-1.5940249E0,6.569E-2,1.0107232E0,-8.4650286E-2,-1.1248326E-1,3.7353527E-2,-1.1383803E0,1.885778E-1,7.491899E-1,-7.2752964E-1,-1.0000006E-1,3.9433308E-2,-1.908531E-2,1.0607105E-1,8.3120316E-1,-1.0543277E-1,3.8420934E-2,-1.2293199E0,-1.3782066E-1,1.3930968E-2,9.361166E-2,-5.3837568E-2,-2.667565E-2,1.12493694E-1,-8.788222E-2,5.658968E-2,5.9925295E-2,-1.6429584E-1,9.571895E-2,-1.1230165E-2,9.915509E-2,-5.5198867E-2,-1.5920292E-1,9.6105365E-3,-3.556452E-2,9.048487E-2,-4.0148154E-2,-1.8976869E-1,1.0747261E-1,-5.6067318E-2,-1.2624584E-1,6.634036E-2,8.176451E-2,-8.095548E-2,1.07754625E-1,-5.616616E-2,4.008047E-2,-1.19328916E-1,-2.1551877E-2,1.0653006E-1,8.9383304E-2,-7.954864E-2,-1.24332905E-1,8.4988765E-2],"categories":[],"categories_nodes":[],"categories_segments":[],"categories_sizes":[],"default_left":[0,0,0,0,0,0,0,0,0,0,0,0,0,0,0,0,0,0,0,0,0,0,0,0,0,0,0,0,0,0,0,0,0,0,0,0,0,0,0,0,0,0,0,0,0,0,0,0,0,0,0,0,0,0,0,0,0,0,0,0,0,0,0,0,0,0,0,0,0,0,0,0,0,0,0,0,0,0,0,0,0,0,0,0,0,0,0,0,0,0,0,0,0,0,0],"id":11,"left_children":[1,3,5,7,9,11,13,15,17,19,21,23,25,27,29,31,33,35,37,-1,-1,39,41,43,45,47,49,51,53,55,57,59,61,63,65,67,69,71,73,75,-1,77,-1,79,-1,-1,-1,81,83,85,87,-1,-1,-1,-1,89,-1,91,93,-1,-1,-1,-1,-1,-1,-1,-1,-1,-1,-1,-1,-1,-1,-1,-1,-1,-1,-1,-1,-1,-1,-1,-1,-1,-1,-1,-1,-1,-1,-1,-1,-1,-1,-1,-1],"loss_changes":[3.3524405E2,5.3521103E1,9.7282135E1,7.158313E1,2.3571869E1,2.874721E1,2.8542572E1,4.423823E1,1.1390064E1,2.0607839E0,1.716159E1,8.265587E0,1.5651833E1,4.4899435E0,1.4151581E1,2.66721E1,1.3903048E1,8.341644E0,1.1178824E1,0E0,0E0,8.341751E0,6.5433407E0,6.8242245E0,2.5719311E0,1.1582636E1,7.1749983E0,2.0804484E0,1.7662129E0,8.899608E0,8.992371E0,1.3815681E1,6.6848097E0,2.4730282E0,1.1320169E1,5.0994835E0,8.194519E0,3.1915102E0,2.8489752E0,8.360321E0,0E0,7.540302E-1,0E0,4.1393547E0,0E0,0E0,0E0,6.1100082E0,6.7950673E0,6.5430827E0,2.816009E0,0E0,0E0,0E0,0E0,1.798451E0,0E0,5.4739833E0,7.594116E0,0E0,0E0,0E0,0E0,0E0,0E0,0E0,0E0,0E0,0E0,0E0,0E0,0E0,0E0,0E0,0E0,0E0,0E0,0E0,0E0,0E0,0E0,0E0,0E0,0E0,0E0,0E0,0E0,0E0,0E0,0E0,0E0,0E0,0E0,0E0,0E0],"parents":[2147483647,0,0,1,1,2,2,3,3,4,4,5,5,6,6,7,7,8,8,9,9,10,10,11,11,12,12,13,13,14,14,15,15,16,16,17,17,18,18,21,21,22,22,23,23,24,24,25,25,26,26,27,27,28,28,29,29,30,30,31,31,32,32,33,33,34,34,35,35,36,36,37,37,38,38,39,39,41,41,43,43,47,47,48,48,49,49,50,50,55,55,57,57,58,58],"right_children":[2,4,6,8,10,12,14,16,18,20,22,24,26,28,30,32,34,36,38,-1,-1,40,42,44,46,48,50,52,54,56,58,60,62,64,66,68,70,72,74,76,-1,78,-1,80,-1,-1,-1,82,84,86,88,-1,-1,-1,-1,90,-1,92,94,-1,-1,-1,-1,-1,-1,-1,-1,-1,-1,-1,-1,-1,-1,-1,-1,-1,-1,-1,-1,-1,-1,-1,-1,-1,-1,-1,-1,-1,-1,-1,-1,-1,-1,-1,-1],"split_conditions":[9E0,3.9905667E-1,5E0,3.202213E-1,-1.1821266E0,-7.548545E-1,5E0,3.8184184E-1,1.3E1,4E0,6.72E2,8.464953E-1,4.582668E-1,1.7138392E-1,5E0,4.6E1,-8.6931676E-1,-1.1120502E0,-6.324924E-1,1.4975888E-2,-1.2537934E-1,6.75E2,6.82287E-1,2.7116678E0,3.8E1,3.775694E-1,-5.290086E-1,1.2382336E0,1.101461E-3,-3.067911E-1,5E0,1.3618843E-1,-3.9116958E-1,-8.423655E-1,3.3636123E-1,4E0,1.6673876E0,7.362454E-1,-6.229347E-1,-8.2592815E-1,-1.0735171E-1,3.0550873E-1,6.569E-2,1.1033833E0,-8.4650286E-2,-1.1248326E-1,3.7353527E-2,7.388599E-1,1.1104294E0,5.496443E-1,-2.8647193E-1,-1.0000006E-1,3.9433308E-2,-1.908531E-2,1.0607105E-1,-4.4211957E-1,-1.0543277E-1,1.4E1,3.2424426E-1,-1.3782066E-1,1.3930968E-2,9.361166E-2,-5.3837568E-2,-2.667565E-2,1.12493694E-1,-8.788222E-2,5.658968E-2,5.9925295E-2,-1.6429584E-1,9.571895E-2,-1.1230165E-2,9.915509E-2,-5.5198867E-2,-1.5920292E-1,9.6105365E-3,-3.556452E-2,9.048487E-2,-4.0148154E-2,-1.8976869E-1,1.0747261E-1,-5.6067318E-2,-1.2624584E-1,6.634036E-2,8.176451E-2,-8.095548E-2,1.07754625E-1,-5.616616E-2,4.008047E-2,-1.19328916E-1,-2.1551877E-2,1.0653006E-1,8.9383304E-2,-7.954864E-2,-1.24332905E-1,8.4988765E-2],"split_indices":[3201,7876,11076,8200,6458,5567,4938,5860,12930,2418,6189,12295,7669,12025,9420,5433,7313,5828,6710,0,0,8106,9586,2795,5496,6481,8348,1830,7562,4171,4155,7454,5737,11606,7336,1176,10049,3907,8733,1794,0,6553,0,11853,0,0,0,5504,12281,2902,1084,0,0,0,0,2318,0,11850,8203,0,0,0,0,0,0,0,0,0,0,0,0,0,0,0,0,0,0,0,0,0,0,0,0,0,0,0,0,0,0,0,0,0,0,0,0],"split_type":[0,0,0,0,0,0,0,0,0,0,0,0,0,0,0,0,0,0,0,0,0,0,0,0,0,0,0,0,0,0,0,0,0,0,0,0,0,0,0,0,0,0,0,0,0,0,0,0,0,0,0,0,0,0,0,0,0,0,0,0,0,0,0,0,0,0,0,0,0,0,0,0,0,0,0,0,0,0,0,0,0,0,0,0,0,0,0,0,0,0,0,0,0,0,0],"sum_hessian":[8.438955E2,5.0975534E2,3.3414017E2,2.1198839E2,2.9776694E2,8.6369675E1,2.4777048E2,1.05491234E2,1.06497154E2,6.101682E0,2.9166525E2,3.8774223E1,4.7595455E1,1.0134397E1,2.376361E2,6.793266E1,3.755857E1,9.609551E1,1.0401643E1,1.0241694E0,5.0775127E0,2.8726736E2,4.397903E0,3.553148E1,3.2427442E0,3.1351828E1,1.6243626E1,2.6803417E0,7.4540553E0,8.520122E0,2.2911597E2,5.6318676E1,1.1613987E1,1.7817225E1,1.9741346E1,2.449719E0,9.364579E1,5.5679827E0,4.8336606E0,2.858698E2,1.397546E0,3.1861074E0,1.2117958E0,3.416608E1,1.3654002E0,2.0293527E0,1.2133917E0,2.2584011E1,8.767816E0,1.2795314E1,3.4483128E0,1.5638704E0,1.1164712E0,1.0040402E0,6.450015E0,5.402591E0,3.1175308E0,5.6770244E0,2.2343893E2,4.971157E1,6.6071067E0,7.6514773E0,3.9625099E0,1.0065389E0,1.6810686E1,9.785892E0,9.955455E0,1.0682387E0,1.3814802E0,8.605475E1,7.591042E0,4.511164E0,1.0568184E0,3.7026694E0,1.1309912E0,4.8697224E0,2.810001E2,1.1179236E0,2.0681837E0,3.313266E1,1.0334209E0,2.1409027E1,1.1749848E0,5.4891415E0,3.2786744E0,1.0374561E1,2.4207525E0,1.0482692E0,2.4000435E0,1.0019456E0,4.4006453E0,2.7669048E0,2.9101193E0,2.2234288E2,1.0960673E0],"tree_param":{"num_deleted":"0","num_feature":"12960","num_nodes":"95","size_leaf_vector":"1"}},{"base_weights":[1.2580441E-2,5.07419E-1,-7.250056E-1,7.3191464E-1,4.4866808E-2,6.4055866E-1,-9.1846347E-1,7.712037E-1,-1.1488041E0,-4.9653688E-1,5.800706E-1,7.110114E-2,1.0067978E0,-4.6365563E-2,-1.0952051E0,-9.396492E-1,8.013326E-1,-1.2647384E-1,-2.430813E-2,-8.836005E-1,2.6723516E-1,-1.1121602E0,6.646237E-1,-7.572664E-1,6.6098964E-1,-5.5414956E-2,1.1293291E-1,-4.81744E-1,8.02496E-1,4.6654174E-1,-1.1352354E0,1.8101253E-3,-1.1490705E-1,4.3760833E-1,9.16657E-1,-1.1577758E0,3.4112614E-1,8.8892984E-1,-3.8451546E-1,1.0963472E-2,-1.6958387E-1,-5.620019E-1,7.55627E-1,-1.2879117E0,6.650519E-2,9.211957E-1,-4.2796817E-2,-7.6009554E-1,8.661473E-1,1.005498E0,-5.0725605E-2,9.6556984E-2,-6.119628E-2,-1.1769153E0,-1.7871048E-1,-1.317382E-2,8.803456E-2,9.388315E-2,-1.062481E-1,-1.3210045E-1,2.2444077E-2,7.293581E-2,-1.5047579E-1,1.02970734E-1,-3.2940924E-2,4.9930137E-2,-1.3532673E-1,-1.9285215E-1,6.1620124E-2,8.352208E-2,-6.769335E-2,-1.5153657E-1,-1.4656583E-2,2.1240932E-3,1.035092E-1,6.627282E-2,-9.876492E-2,1.1678987E-2,9.914989E-2,1.1259415E-1,-2.6908813E-2,6.5642856E-2,-1.19297795E-1,-1.1235893E-1,8.960491E-2],"categories":[],"categories_nodes":[],"categories_segments":[],"categories_sizes":[],"default_left":[0,0,0,0,0,0,0,0,0,0,0,0,0,0,0,0,0,0,0,0,0,0,0,0,0,0,0,0,0,0,0,0,0,0,0,0,0,0,0,0,0,0,0,0,0,0,0,0,0,0,0,0,0,0,0,0,0,0,0,0,0,0,0,0,0,0,0,0,0,0,0,0,0,0,0,0,0,0,0,0,0,0,0,0,0],"id":12,"left_children":[1,3,5,7,9,11,13,15,17,19,21,23,25,27,29,31,33,-1,-1,35,37,39,41,43,45,-1,-1,47,49,51,53,-1,-1,55,57,59,61,63,65,-1,-1,67,69,71,-1,73,-1,75,77,79,-1,-1,-1,81,83,-1,-1,-1,-1,-1,-1,-1,-1,-1,-1,-1,-1,-1,-1,-1,-1,-1,-1,-1,-1,-1,-1,-1,-1,-1,-1,-1,-1,-1,-1],"loss_changes":[2.918806E2,4.9664856E1,8.541649E1,2.468991E1,4.591037E1,8.361298E0,4.3364136E1,1.7049438E1,4.2693996E-1,2.3534435E1,1.2134113E1,8.759758E0,5.3179245E0,1.8314095E1,1.516864E1,1.210505E0,1.2653427E1,0E0,0E0,1.803582E1,1.1392948E1,3.1553292E0,8.961304E0,6.5142198E0,3.3428588E0,0E0,0E0,1.2922511E1,4.9822454E0,4.121859E0,8.903381E0,0E0,0E0,1.948403E1,1.1327713E1,1.003265E1,8.5376215E0,2.7851315E0,1.2673763E1,0E0,0E0,1.0615564E1,8.7316475E0,1.2835703E0,0E0,8.7145615E-1,0E0,9.598881E0,4.5365906E-1,2.5901089E0,0E0,0E0,0E0,7.2285156E0,1.1897303E1,0E0,0E0,0E0,0E0,0E0,0E0,0E0,0E0,0E0,0E0,0E0,0E0,0E0,0E0,0E0,0E0,0E0,0E0,0E0,0E0,0E0,0E0,0E0,0E0,0E0,0E0,0E0,0E0,0E0,0E0],"parents":[2147483647,0,0,1,1,2,2,3,3,4,4,5,5,6,6,7,7,8,8,9,9,10,10,11,11,12,12,13,13,14,14,15,15,16,16,19,19,20,20,21,21,22,22,23,23,24,24,27,27,28,28,29,29,30,30,33,33,34,34,35,35,36,36,37,37,38,38,41,41,42,42,43,43,45,45,47,47,48,48,49,49,53,53,54,54],"right_children":[2,4,6,8,10,12,14,16,18,20,22,24,26,28,30,32,34,-1,-1,36,38,40,42,44,46,-1,-1,48,50,52,54,-1,-1,56,58,60,62,64,66,-1,-1,68,70,72,-1,74,-1,76,78,80,-1,-1,-1,82,84,-1,-1,-1,-1,-1,-1,-1,-1,-1,-1,-1,-1,-1,-1,-1,-1,-1,-1,-1,-1,-1,-1,-1,-1,-1,-1,-1,-1,-1,-1],"split_conditions":[9E0,-7.775056E-1,5E0,7.68E2,4.3260038E-1,3.7668875E-1,6E0,-1.1834576E0,5.7366967E-2,4.3054214E-1,-1.3003633E0,2.720285E-1,8.576432E-2,5E1,4E0,-2.9438263E-1,3.1244296E-1,-1.2647384E-1,-2.430813E-2,4.175256E-1,-1.6804135E-1,3.5E1,-9.0554583E-1,6.40022E-1,4.189705E-1,-5.5414956E-2,1.1293291E-1,6.353824E-1,3.1E1,6.434118E-1,1.57E2,1.8101253E-3,-1.1490705E-1,3.397537E-1,5.1922517E0,5.7E1,1.2210736E0,2.1248264E0,5E0,1.0963472E-2,-1.6958387E-1,-1.0595463E-1,6.568344E-1,4.7442672E-1,6.650519E-2,-8.0352974E-1,-4.2796817E-2,5E0,-4.4744125E-1,1.8595889E0,-5.0725605E-2,9.6556984E-2,-6.119628E-2,4E0,1.4403291E-1,-1.317382E-2,8.803456E-2,9.388315E-2,-1.062481E-1,-1.3210045E-1,2.2444077E-2,7.293581E-2,-1.5047579E-1,1.02970734E-1,-3.2940924E-2,4.9930137E-2,-1.3532673E-1,-1.9285215E-1,6.1620124E-2,8.352208E-2,-6.769335E-2,-1.5153657E-1,-1.4656583E-2,2.1240932E-3,1.035092E-1,6.627282E-2,-9.876492E-2,1.1678987E-2,9.914989E-2,1.1259415E-1,-2.6908813E-2,6.5642856E-2,-1.19297795E-1,-1.1235893E-1,8.960491E-2],"split_indices":[3273,8339,3993,7179,8272,7867,9798,6467,9579,6670,8733,8641,10261,4011,4641,895,9181,0,0,7669,10164,7341,9995,8658,1082,0,0,4222,240,3038,4578,0,0,7471,12558,7467,12577,3254,11274,0,0,2210,1082,2296,0,11687,0,3633,2965,12011,0,0,0,5973,11234,0,0,0,0,0,0,0,0,0,0,0,0,0,0,0,0,0,0,0,0,0,0,0,0,0,0,0,0,0,0],"split_type":[0,0,0,0,0,0,0,0,0,0,0,0,0,0,0,0,0,0,0,0,0,0,0,0,0,0,0,0,0,0,0,0,0,0,0,0,0,0,0,0,0,0,0,0,0,0,0,0,0,0,0,0,0,0,0,0,0,0,0,0,0,0,0,0,0,0,0,0,0,0,0,0,0,0,0,0,0,0,0,0,0,0,0,0,0],"sum_hessian":[7.976955E2,4.7759454E2,3.2010095E2,3.2114655E2,1.5644801E2,3.9434296E1,2.8066666E2,3.151528E2,5.9937415E0,7.780945E1,7.863856E1,1.5902294E1,2.3532E1,4.7508286E1,2.3315839E2,4.931523E0,3.1022128E2,4.962186E0,1.0315554E0,5.153547E1,2.6273983E1,3.163875E0,7.5474686E1,6.4961486E0,9.406145E0,1.4563813E0,2.2075619E1,3.168806E1,1.5820224E1,5.560646E0,2.2759773E2,1.0487621E0,3.8827605E0,7.583573E1,2.3438554E2,4.21534E1,9.382069E0,1.3260801E1,1.3013181E1,1.2853855E0,1.8784896E0,4.8552713E0,7.061941E1,4.799884E0,1.6962649E0,7.7163773E0,1.6897681E0,2.6625702E1,5.062359E0,1.38983755E1,1.9218479E0,3.8732107E0,1.6874353E0,2.1787364E2,9.724101E0,3.348172E1,4.235401E1,2.3230838E2,2.0771737E0,3.77408E1,4.4126005E0,8.251468E0,1.1306009E0,1.2026036E1,1.2347656E0,7.058305E0,5.9548764E0,1.9531312E0,2.9021401E0,6.729731E1,3.3221014E0,3.7290387E0,1.0708452E0,1.0001504E0,6.7162266E0,3.4074643E0,2.3218239E1,1.0022945E0,4.0600643E0,1.2804977E1,1.0933989E0,1.5460322E0,2.163276E2,5.1505456E0,4.573555E0],"tree_param":{"num_deleted":"0","num_feature":"12960","num_nodes":"85","size_leaf_vector":"1"}},{"base_weights":[1.1503392E-2,4.9977347E-1,-6.811329E-1,9.8425046E-2,7.712736E-1,1.5660533E-1,-1.0005283E0,-4.6299827E-1,6.3917935E-1,8.164653E-1,-3.6319873E-1,5.272084E-1,-3.9556506E-1,2.0749407E-1,-1.0998602E0,-9.282493E-1,4.7009856E-1,7.566883E-1,-6.0074663E-1,8.4464455E-1,-7.715306E-1,6.898005E-1,-1.083032E0,6.580986E-1,-1.06667735E-1,5.93152E-1,-7.5642735E-1,-3.4086588E-1,1.0277869E-1,4.602147E-1,-1.1402742E0,-1.1766977E0,5.326345E-1,6.651027E-1,-1.2291335E0,8.147302E-1,-8.3413845E-1,5.613994E-1,-1.342071E0,-9.338154E-2,8.6886865E-1,4.212565E-2,-1.2965159E-1,8.63396E-2,-2.892252E-4,2.0250585E-2,-1.3631722E-1,9.164925E-1,2.383652E-2,-2.6449096E-1,1.0301341E-1,-9.625162E-1,8.4492E-2,-8.9558095E-1,6.2926084E-1,-7.679106E-2,9.628357E-2,4.8045662E-1,-1.1672002E0,-3.7393745E-2,-1.4356293E-1,1.04150794E-1,-6.798395E-2,8.799602E-2,-5.576237E-2,-1.7428611E-1,-5.9703193E-3,-1.1290478E-2,9.078992E-2,5.9611745E-2,-1.7060022E-1,8.0533646E-2,-8.889561E-3,6.241616E-3,-1.6918294E-1,8.8531636E-2,-9.0860575E-2,-4.018004E-2,1.01716615E-1,-6.62047E-2,7.6336004E-2,-8.430134E-2,6.528513E-2,-1.153829E-1,5.8822732E-2,3.5371743E-2,-1.1339843E-1,-1.7215785E-2,8.897295E-2,-3.1877708E-2,8.4776975E-2,2.2696199E-2,-1.1878263E-1],"categories":[],"categories_nodes":[],"categories_segments":[],"categories_sizes":[],"default_left":[0,0,0,0,0,0,0,0,0,0,0,0,0,0,0,0,0,0,0,0,0,0,0,0,0,0,0,0,0,0,0,0,0,0,0,0,0,0,0,0,0,0,0,0,0,0,0,0,0,0,0,0,0,0,0,0,0,0,0,0,0,0,0,0,0,0,0,0,0,0,0,0,0,0,0,0,0,0,0,0,0,0,0,0,0,0,0,0,0,0,0,0,0],"id":13,"left_children":[1,3,5,7,9,11,13,15,17,19,21,23,25,27,29,31,33,35,37,39,41,43,45,47,-1,49,51,53,-1,55,57,59,61,63,65,67,69,71,73,-1,75,-1,-1,-1,-1,-1,-1,77,79,81,-1,83,-1,85,87,-1,-1,89,91,-1,-1,-1,-1,-1,-1,-1,-1,-1,-1,-1,-1,-1,-1,-1,-1,-1,-1,-1,-1,-1,-1,-1,-1,-1,-1,-1,-1,-1,-1,-1,-1,-1,-1],"loss_changes":[2.5588976E2,4.8280678E1,8.3867004E1,5.500741E1,1.3860321E1,1.8056816E1,2.7423233E1,3.9072144E1,1.3890778E1,1.2050674E1,8.953945E0,1.1679615E1,1.3150548E1,8.47438E0,1.3738174E1,2.2303318E1,1.0849161E1,8.4981575E0,8.111189E0,1.1614975E1,3.6546712E0,6.045985E-1,2.7321725E0,8.048809E0,0E0,4.050047E0,9.565612E0,6.7928824E0,0E0,4.4457808E0,9.48819E0,1.0137535E1,6.488672E0,7.7958355E0,1.9792638E0,7.206917E0,5.350028E0,7.1106243E-1,2.8118744E0,0E0,8.052414E0,0E0,0E0,0E0,0E0,0E0,0E0,5.048914E0,8.256484E0,2.7782176E0,0E0,7.788349E0,0E0,2.7174563E0,1.1548036E0,0E0,0E0,1.4596381E0,6.0644836E0,0E0,0E0,0E0,0E0,0E0,0E0,0E0,0E0,0E0,0E0,0E0,0E0,0E0,0E0,0E0,0E0,0E0,0E0,0E0,0E0,0E0,0E0,0E0,0E0,0E0,0E0,0E0,0E0,0E0,0E0,0E0,0E0,0E0,0E0],"parents":[2147483647,0,0,1,1,2,2,3,3,4,4,5,5,6,6,7,7,8,8,9,9,10,10,11,11,12,12,13,13,14,14,15,15,16,16,17,17,18,18,19,19,20,20,21,21,22,22,23,23,25,25,26,26,27,27,29,29,30,30,31,31,32,32,33,33,34,34,35,35,36,36,37,37,38,38,40,40,47,47,48,48,49,49,51,51,53,53,54,54,57,57,58,58],"right_children":[2,4,6,8,10,12,14,16,18,20,22,24,26,28,30,32,34,36,38,40,42,44,46,48,-1,50,52,54,-1,56,58,60,62,64,66,68,70,72,74,-1,76,-1,-1,-1,-1,-1,-1,78,80,82,-1,84,-1,86,88,-1,-1,90,92,-1,-1,-1,-1,-1,-1,-1,-1,-1,-1,-1,-1,-1,-1,-1,-1,-1,-1,-1,-1,-1,-1,-1,-1,-1,-1,-1,-1,-1,-1,-1,-1,-1,-1],"split_conditions":[6E0,3.5427505E-1,7E0,3.2015678E-1,7.528803E-1,-6.955093E-1,4E0,3.4365785E-1,1.1636331E-1,7.14E2,4E0,7.46E2,-3.42827E-1,6.4E1,5E0,4.4487858E-1,6.9782346E-1,1.8153554E0,3.2061777E-1,-1.2679266E0,-7.9721516E-1,3.8072714E-1,2.7938023E-1,3.8649365E-1,-1.06667735E-1,2.6356047E-1,8.9042044E-1,4.2085674E-1,1.0277869E-1,2.4624678E-1,3E0,2.6198808E-2,9.6287644E-1,-6.765165E-1,-5.68133E-1,-6.618303E-1,4.1E1,6E0,-1.2649639E-1,-9.338154E-2,7.7525215E0,4.212565E-2,-1.2965159E-1,8.63396E-2,-2.892252E-4,2.0250585E-2,-1.3631722E-1,-5.174599E-1,4.5673773E-1,2.8214085E-1,1.0301341E-1,1.0150088E0,8.4492E-2,2.3671784E-2,-8.5113454E-1,-7.679106E-2,9.628357E-2,1.3287613E-1,4E0,-3.7393745E-2,-1.4356293E-1,1.04150794E-1,-6.798395E-2,8.799602E-2,-5.576237E-2,-1.7428611E-1,-5.9703193E-3,-1.1290478E-2,9.078992E-2,5.9611745E-2,-1.7060022E-1,8.0533646E-2,-8.889561E-3,6.241616E-3,-1.6918294E-1,8.8531636E-2,-9.0860575E-2,-4.018004E-2,1.01716615E-1,-6.62047E-2,7.6336004E-2,-8.430134E-2,6.528513E-2,-1.153829E-1,5.8822732E-2,3.5371743E-2,-1.1339843E-1,-1.7215785E-2,8.897295E-2,-3.1877708E-2,8.4776975E-2,2.2696199E-2,-1.1878263E-1],"split_indices":[11544,7507,3390,7048,11882,8330,10518,8236,7526,6693,3507,7179,11298,6504,6720,7831,10991,4872,1235,7583,7079,11902,12794,866,0,7993,7327,6238,0,5905,9438,7499,11750,7673,10584,783,7287,4074,2930,0,12559,0,0,0,0,0,0,2560,5320,4924,0,9824,0,6185,9365,0,0,10891,5532,0,0,0,0,0,0,0,0,0,0,0,0,0,0,0,0,0,0,0,0,0,0,0,0,0,0,0,0,0,0,0,0,0,0],"split_type":[0,0,0,0,0,0,0,0,0,0,0,0,0,0,0,0,0,0,0,0,0,0,0,0,0,0,0,0,0,0,0,0,0,0,0,0,0,0,0,0,0,0,0,0,0,0,0,0,0,0,0,0,0,0,0,0,0,0,0,0,0,0,0,0,0,0,0,0,0,0,0,0,0,0,0,0,0,0,0,0,0,0,0,0,0,0,0,0,0,0,0,0,0],"sum_hessian":[7.546304E2,4.4277618E2,3.1185416E2,1.7921376E2,2.6356244E2,8.621958E1,2.2563458E2,8.799704E1,9.121672E1,2.537352E2,9.827233E0,5.1619236E1,3.4600346E1,1.7060825E1,2.0857376E2,5.8722588E1,2.927445E1,8.367636E1,7.5403585E0,2.4977109E2,3.9641118E0,4.0071483E0,5.8200846E0,4.82445E1,3.3747363E0,9.079621E0,2.5520723E1,1.0575582E1,6.485244E0,5.0044065E0,2.0356935E2,5.035362E1,8.368968E0,2.6806696E1,2.4677546E0,8.120155E1,2.4748127E0,3.0311878E0,4.5091705E0,2.8517964E0,2.469193E2,1.2718968E0,2.692215E0,3.0071044E0,1.0000439E0,1.0909481E0,4.7291365E0,3.396317E1,1.4281332E1,3.197932E0,5.8816895E0,2.2964226E1,2.5564966E0,6.7772274E0,3.798354E0,1.3000345E0,3.704372E0,3.051478E0,2.0051787E2,1.287663E1,3.747699E1,5.9942126E0,2.3747556E0,2.3038671E1,3.7680244E0,1.3738676E0,1.093887E0,7.391946E0,7.380961E1,1.0570457E0,1.417767E0,2.0309327E0,1.0002551E0,1.0628284E0,3.4463422E0,2.4515271E2,1.7665734E0,2.197422E0,3.1765745E1,7.463733E0,6.8175983E0,2.0108283E0,1.1871036E0,2.0670135E1,2.2940907E0,1.0085356E0,5.768692E0,1.0148561E0,2.7834978E0,1.0024321E0,2.0490458E0,2.777499E0,1.9774037E2],"tree_param":{"num_deleted":"0","num_feature":"12960","num_nodes":"93","size_leaf_vector":"1"}},{"base_weights":[1.0480718E-2,5.337615E-1,-5.876845E-1,1.7055492E-1,7.914895E-1,1.7034364E-1,-9.1762036E-1,-4.3844706E-1,5.328652E-1,8.341572E-1,-3.4360433E-1,6.1760706E-1,-3.9080188E-1,4.1094315E-1,-1.0227387E0,-7.074136E-1,6.368082E-1,7.199224E-2,8.6176103E-1,8.5460776E-1,-7.3455137E-1,5.4030144E-1,-1.3102807E0,-4.752034E-2,8.714138E-1,-7.665083E-1,6.771866E-1,7.3972124E-1,-8.0540675E-1,1.620479E-1,-1.0868264E0,-9.593726E-1,3.2250428E-1,9.2465365E-1,-1.09261E-1,-5.648872E-1,5.846756E-1,9.898718E-1,-1.1592924E-1,9.53705E-2,9.022949E-1,2.7223442E-2,-1.4130937E-1,-4.5256607E-2,8.776337E-2,-1.3479948E-2,-1.6653287E-1,6.9405776E-1,-9.436553E-1,-6.0281355E-2,9.25352E-1,-1.0039288E0,5.4736423E-1,9.824519E-1,-4.7407058E-1,-5.6320943E-2,9.7260165E-1,4.025582E-2,-1.3131069E-1,-6.338314E-1,8.920426E-1,3.331352E-1,-1.1266105E0,5.893175E-2,-1.1213859E-1,8.698906E-2,-8.471885E-2,-1.6862437E-2,1.04746066E-1,6.0784142E-2,-8.954609E-2,7.237192E-2,-9.503182E-2,1.0468155E-1,-4.3006036E-2,-1.0548567E-1,8.825254E-2,5.3096797E-2,-1.4749174E-1,9.236736E-2,-6.1049487E-2,1.0148051E-1,-7.6512165E-2,-1.3399503E-1,5.2573133E-2,9.847713E-2,-5.0830245E-2,5.4248203E-2,-1.11930765E-1,9.5544614E-2,-7.194211E-2,1.228803E-2,1.0630887E-1,4.5593005E-2,-1.162008E-1,1.0836561E-1,6.2768767E-3,5.4933198E-2,-1.13829784E-1,1.0077838E-1,1.2072081E-2,8.718574E-2,-7.3438875E-2,-1.14158385E-1,8.1303954E-2],"categories":[],"categories_nodes":[],"categories_segments":[],"categories_sizes":[],"default_left":[0,0,0,0,0,0,0,0,0,0,0,0,0,0,0,0,0,0,0,0,0,0,0,0,0,0,0,0,0,0,0,0,0,0,0,0,0,0,0,0,0,0,0,0,0,0,0,0,0,0,0,0,0,0,0,0,0,0,0,0,0,0,0,0,0,0,0,0,0,0,0,0,0,0,0,0,0,0,0,0,0,0,0,0,0,0,0,0,0,0,0,0,0,0,0,0,0,0,0,0,0,0,0,0,0],"id":14,"left_children":[1,3,5,7,9,11,13,15,17,19,21,23,25,27,29,31,33,35,37,39,41,43,45,47,49,51,53,55,57,59,61,63,65,67,-1,69,71,73,75,77,79,-1,-1,-1,-1,-1,-1,81,83,-1,85,87,89,91,93,-1,95,-1,-1,97,99,101,103,-1,-1,-1,-1,-1,-1,-1,-1,-1,-1,-1,-1,-1,-1,-1,-1,-1,-1,-1,-1,-1,-1,-1,-1,-1,-1,-1,-1,-1,-1,-1,-1,-1,-1,-1,-1,-1,-1,-1,-1,-1,-1],"loss_changes":[2.2370482E2,3.5548355E1,8.3563126E1,3.5426132E1,1.1072479E1,2.5835907E1,3.2892426E1,1.7815247E1,1.5164667E1,7.522751E0,8.206807E0,9.686611E0,1.8913717E1,7.6987476E0,1.6558289E1,1.2895601E1,7.252875E0,1.4345946E1,7.4456825E0,7.612091E0,2.6415367E0,2.1697576E0,1.6468449E0,1.1772165E1,3.8503227E0,1.12747E1,4.845096E0,4.9484916E0,3.1400225E0,7.503507E0,1.1945511E1,1.0501621E1,7.320107E0,1.6927805E0,0E0,8.162939E0,5.868269E0,4.642849E0,8.126965E0,1.0142868E1,7.030197E0,0E0,0E0,0E0,0E0,0E0,0E0,5.3303604E0,5.362259E0,0E0,3.9369316E0,5.865856E0,3.7421627E0,5.7462597E-1,2.6322446E0,0E0,1.2122583E0,0E0,0E0,4.3842177E0,4.71488E-1,4.294309E0,6.720978E0,0E0,0E0,0E0,0E0,0E0,0E0,0E0,0E0,0E0,0E0,0E0,0E0,0E0,0E0,0E0,0E0,0E0,0E0,0E0,0E0,0E0,0E0,0E0,0E0,0E0,0E0,0E0,0E0,0E0,0E0,0E0,0E0,0E0,0E0,0E0,0E0,0E0,0E0,0E0,0E0,0E0,0E0],"parents":[2147483647,0,0,1,1,2,2,3,3,4,4,5,5,6,6,7,7,8,8,9,9,10,10,11,11,12,12,13,13,14,14,15,15,16,16,17,17,18,18,19,19,20,20,21,21,22,22,23,23,24,24,25,25,26,26,27,27,28,28,29,29,30,30,31,31,32,32,33,33,35,35,36,36,37,37,38,38,39,39,40,40,47,47,48,48,50,50,51,51,52,52,53,53,54,54,56,56,59,59,60,60,61,61,62,62],"right_children":[2,4,6,8,10,12,14,16,18,20,22,24,26,28,30,32,34,36,38,40,42,44,46,48,50,52,54,56,58,60,62,64,66,68,-1,70,72,74,76,78,80,-1,-1,-1,-1,-1,-1,82,84,-1,86,88,90,92,94,-1,96,-1,-1,98,100,102,104,-1,-1,-1,-1,-1,-1,-1,-1,-1,-1,-1,-1,-1,-1,-1,-1,-1,-1,-1,-1,-1,-1,-1,-1,-1,-1,-1,-1,-1,-1,-1,-1,-1,-1,-1,-1,-1,-1,-1,-1,-1,-1],"split_conditions":[6E0,3.6927527E-1,5E0,3.1360504E-1,5.03E2,-7.205949E-1,5E0,6.3498855E-1,3.2368702E-1,8.532636E-1,-7.707461E-1,2.2914542E-1,5.171782E-1,6.4376116E-1,5E0,5.022851E-1,1.3393139E0,2.9739177E-1,9.934171E-1,9.97312E-2,1.016616E0,-4.382319E-1,2.254251E-1,-7.82864E-1,-1.0909188E0,6.155283E-1,2.2E1,2E0,1.2E1,2.8E1,4E0,1.9847631E-2,-7.3745406E-1,1.3540368E-1,-1.09261E-1,-8.7543845E-1,4.5E2,2.2444181E0,4.339212E-1,7.541297E-1,5.379451E0,2.7223442E-2,-1.4130937E-1,-4.5256607E-2,8.776337E-2,-1.3479948E-2,-1.6653287E-1,1.3340914E0,6.7E1,-6.0281355E-2,4.5388594E0,3E0,3.4664777E-1,-9.3555945E-1,-4.0824878E-1,-5.6320943E-2,1.9E1,4.025582E-2,-1.3131069E-1,-5.8195466E-1,6.256171E-1,4.2254072E-1,3.2424426E-1,5.893175E-2,-1.1213859E-1,8.698906E-2,-8.471885E-2,-1.6862437E-2,1.04746066E-1,6.0784142E-2,-8.954609E-2,7.237192E-2,-9.503182E-2,1.0468155E-1,-4.3006036E-2,-1.0548567E-1,8.825254E-2,5.3096797E-2,-1.4749174E-1,9.236736E-2,-6.1049487E-2,1.0148051E-1,-7.6512165E-2,-1.3399503E-1,5.2573133E-2,9.847713E-2,-5.0830245E-2,5.4248203E-2,-1.11930765E-1,9.5544614E-2,-7.194211E-2,1.228803E-2,1.0630887E-1,4.5593005E-2,-1.162008E-1,1.0836561E-1,6.2768767E-3,5.4933198E-2,-1.13829784E-1,1.0077838E-1,1.2072081E-2,8.718574E-2,-7.3438875E-2,-1.14158385E-1,8.1303954E-2],"split_indices":[3543,7489,10653,9235,7386,5630,3993,7885,6967,1973,8465,4384,5392,2359,9429,8236,12811,5302,9855,9496,3317,3200,2396,4451,6485,7597,2868,1311,12021,4488,5055,9353,6638,10000,0,5475,8790,2246,2809,3745,12127,0,0,0,0,0,0,2318,7872,0,12856,5577,695,5477,4459,0,2085,0,0,3929,3510,1045,8203,0,0,0,0,0,0,0,0,0,0,0,0,0,0,0,0,0,0,0,0,0,0,0,0,0,0,0,0,0,0,0,0,0,0,0,0,0,0,0,0,0,0],"split_type":[0,0,0,0,0,0,0,0,0,0,0,0,0,0,0,0,0,0,0,0,0,0,0,0,0,0,0,0,0,0,0,0,0,0,0,0,0,0,0,0,0,0,0,0,0,0,0,0,0,0,0,0,0,0,0,0,0,0,0,0,0,0,0,0,0,0,0,0,0,0,0,0,0,0,0,0,0,0,0,0,0,0,0,0,0,0,0,0,0,0,0,0,0,0,0,0,0,0,0,0,0,0,0,0,0],"sum_hessian":[7.126907E2,3.8019766E2,3.3249298E2,1.5849634E2,2.2170132E2,1.0097848E2,2.3151451E2,5.904252E1,9.945383E1,2.1392508E2,7.776234E0,5.6135124E1,4.4843353E1,1.676146E1,2.1475305E2,4.7502293E1,1.1540224E1,4.1924717E1,5.752911E1,2.1162149E2,2.303601E0,4.292421E0,3.4838138E0,1.5728833E1,4.040629E1,3.338217E1,1.14611845E1,1.35033655E1,3.2580936E0,1.0941911E1,2.0381114E2,3.8220528E1,9.281767E0,1.0292477E1,1.2477478E0,1.8652222E1,2.3272495E1,5.0853153E1,6.675956E0,1.2683554E1,1.9893793E2,1.1685549E0,1.1350461E0,1.0019083E0,3.2905123E0,1.1282167E0,2.355597E0,8.73E0,6.9988337E0,1.0670071E0,3.9339283E1,2.847293E1,4.90924E0,9.174988E0,2.2861967E0,1.8324788E0,1.1670887E1,1.0254196E0,2.232674E0,5.297751E0,5.64416E0,5.3537383E0,1.984574E2,3.36992E0,3.4850605E1,6.49744E0,2.7843268E0,1.0017157E0,9.290761E0,3.9171536E0,1.4735068E1,2.1824131E1,1.4483651E0,4.914505E1,1.708102E0,3.4114265E0,3.264529E0,1.0447332E1,2.2362213E0,1.9654971E2,2.3882134E0,7.406491E0,1.3235092E0,5.5815682E0,1.4172654E0,3.8074356E1,1.2649283E0,1.7198756E0,2.6753056E1,3.8989909E0,1.0102488E0,1.00335E0,8.1716385E0,1.1154737E0,1.1707228E0,1.0231035E1,1.4398516E0,1.5570192E0,3.7407317E0,4.6411605E0,1.0029997E0,3.6799529E0,1.6737854E0,1.9734543E2,1.1119753E0],"tree_param":{"num_deleted":"0","num_feature":"12960","num_nodes":"105","size_leaf_vector":"1"}},{"base_weights":[9.805177E-3,4.5476118E-1,-6.4180225E-1,7.6037186E-1,9.474078E-2,1.4431824E-1,-9.445422E-1,8.822114E-1,3.0688736E-1,-4.3905726E-1,4.974296E-1,-4.0607956E-1,5.041313E-1,2.2863716E-1,-1.0472496E0,9.046128E-1,-8.858281E-2,-3.863031E-1,7.4801505E-1,-8.631972E-1,2.4889882E-1,7.294079E-1,-5.3962335E-2,-7.5194466E-1,4.718287E-1,7.334136E-1,-4.6059683E-1,-3.1698126E-1,9.2400455E-1,5.6690335E-1,-1.0794351E0,9.2472905E-1,-7.3220715E-2,-1.2232026E0,5.5591995E-1,1.0319744E0,-1.0044471E-1,-1.103147E0,3.618356E-1,4.32592E-1,-1.10661924E-1,8.1535316E-1,-5.8365625E-1,3.2155377E-1,-8.2491434E-1,-1.2722007E0,-1.379052E-1,-9.194625E-2,9.2225575E-1,8.621397E-1,-3.8865027E-1,5.708217E-1,-1.1006216E0,-7.815797E-1,7.429532E-2,1.00952186E-1,1.7925076E-2,8.7424986E-2,-2.086818E-2,1.4891848E-1,-1.1123706E0,-5.51964E-2,9.453037E-2,6.8074636E-2,-1.6129617E-1,8.94485E-2,-7.8819446E-2,1.0738563E-1,7.5703934E-3,5.9529383E-2,-1.4711837E-1,-1.1738677E-1,5.2039534E-2,7.7227026E-2,-7.118907E-2,6.484259E-2,-7.345749E-2,8.643898E-2,-1.1765379E-1,4.8164565E-2,-1.7182006E-1,6.0022917E-2,-6.710313E-2,-1.1158859E-1,6.75033E-2,-1.4459515E-1,9.488405E-3,5.793379E-2,-8.105131E-2,2.0186296E-2,1.00244716E-1,9.450583E-2,-6.333884E-2,6.830404E-2,-1.125774E-1,7.954457E-2,-8.962399E-3,6.0907144E-2,-1.613262E-1,4.6636812E-2,-1.0707612E-1,-7.672356E-2,8.6798534E-2,2.3211509E-2,-1.1374742E-1],"categories":[],"categories_nodes":[],"categories_segments":[],"categories_sizes":[],"default_left":[0,0,0,0,0,0,0,0,0,0,0,0,0,0,0,0,0,0,0,0,0,0,0,0,0,0,0,0,0,0,0,0,0,0,0,0,0,0,0,0,0,0,0,0,0,0,0,0,0,0,0,0,0,0,0,0,0,0,0,0,0,0,0,0,0,0,0,0,0,0,0,0,0,0,0,0,0,0,0,0,0,0,0,0,0,0,0,0,0,0,0,0,0,0,0,0,0,0,0,0,0,0,0,0,0],"id":15,"left_children":[1,3,5,7,9,11,13,15,17,19,21,23,25,27,29,31,-1,33,35,37,39,41,43,45,47,49,51,53,55,57,59,61,-1,63,65,67,69,71,73,75,-1,77,79,81,83,85,87,-1,89,91,93,95,97,99,-1,-1,-1,-1,-1,101,103,-1,-1,-1,-1,-1,-1,-1,-1,-1,-1,-1,-1,-1,-1,-1,-1,-1,-1,-1,-1,-1,-1,-1,-1,-1,-1,-1,-1,-1,-1,-1,-1,-1,-1,-1,-1,-1,-1,-1,-1,-1,-1,-1,-1],"loss_changes":[1.957071E2,4.405832E1,6.532252E1,1.1707726E1,4.004828E1,1.5458127E1,2.4082977E1,7.5483093E0,1.479708E1,2.361862E1,1.3609026E1,9.767901E0,1.0738531E1,6.647933E0,1.0074081E1,6.2322693E0,0E0,1.5749587E1,7.171236E0,1.5049816E1,8.288938E0,8.910454E0,9.629707E0,7.0523167E0,6.723712E0,5.8782253E0,6.994235E0,5.5692225E0,3.043437E-1,1.1874905E0,7.4039154E0,5.598892E0,0E0,8.840485E0,5.1088133E0,8.0252457E-1,8.75996E0,5.4245872E0,4.479233E0,7.616077E0,0E0,7.9095726E0,7.081423E0,6.618498E0,5.4996877E0,3.0175762E0,6.016851E0,0E0,2.356615E-1,4.906376E0,4.4335294E0,7.1679056E-1,6.497554E0,3.216951E0,0E0,0E0,0E0,0E0,0E0,4.3246956E0,6.148941E0,0E0,0E0,0E0,0E0,0E0,0E0,0E0,0E0,0E0,0E0,0E0,0E0,0E0,0E0,0E0,0E0,0E0,0E0,0E0,0E0,0E0,0E0,0E0,0E0,0E0,0E0,0E0,0E0,0E0,0E0,0E0,0E0,0E0,0E0,0E0,0E0,0E0,0E0,0E0,0E0,0E0,0E0,0E0,0E0],"parents":[2147483647,0,0,1,1,2,2,3,3,4,4,5,5,6,6,7,7,8,8,9,9,10,10,11,11,12,12,13,13,14,14,15,15,17,17,18,18,19,19,20,20,21,21,22,22,23,23,24,24,25,25,26,26,27,27,28,28,29,29,30,30,31,31,33,33,34,34,35,35,36,36,37,37,38,38,39,39,41,41,42,42,43,43,44,44,45,45,46,46,48,48,49,49,50,50,51,51,52,52,53,53,59,59,60,60],"right_children":[2,4,6,8,10,12,14,16,18,20,22,24,26,28,30,32,-1,34,36,38,40,42,44,46,48,50,52,54,56,58,60,62,-1,64,66,68,70,72,74,76,-1,78,80,82,84,86,88,-1,90,92,94,96,98,100,-1,-1,-1,-1,-1,102,104,-1,-1,-1,-1,-1,-1,-1,-1,-1,-1,-1,-1,-1,-1,-1,-1,-1,-1,-1,-1,-1,-1,-1,-1,-1,-1,-1,-1,-1,-1,-1,-1,-1,-1,-1,-1,-1,-1,-1,-1,-1,-1,-1,-1],"split_conditions":[6E0,-8.008573E-1,5E0,-8.0877644E-1,3.392001E-1,2.8399655E-1,4E0,2.2163706E0,3.5718793E-1,3.9846045E-1,-7.0601594E-1,5.666466E-1,4.8142478E-1,5.116252E-1,5E0,8.933577E-1,-8.858281E-2,3.3940366E-1,4.4562426E-1,4.0604413E-1,1.5981762E0,2.8278608E0,-5.8170563E-1,3.103411E-1,2E0,1.6015586E0,7E0,4.5253587E-1,1.8189485E0,2.9943573E-1,3E0,-1.1407248E0,-7.3220715E-2,-9.188624E-1,8.531883E-1,6.7816305E-1,4E0,1.9609742E-1,-6.029223E-1,5.1892316E-1,-1.10661924E-1,1.8990508E-1,5E1,9.448702E-1,-4.889484E-1,8.690791E-1,1.7944258E-1,-9.194625E-2,-1.8803118E-1,5.76E2,-1.2858079E-2,1.1108396E0,-7.321171E-1,4E0,7.429532E-2,1.00952186E-1,1.7925076E-2,8.7424986E-2,-2.086818E-2,5.7E1,4E0,-5.51964E-2,9.453037E-2,6.8074636E-2,-1.6129617E-1,8.94485E-2,-7.8819446E-2,1.0738563E-1,7.5703934E-3,5.9529383E-2,-1.4711837E-1,-1.1738677E-1,5.2039534E-2,7.7227026E-2,-7.118907E-2,6.484259E-2,-7.345749E-2,8.643898E-2,-1.1765379E-1,4.8164565E-2,-1.7182006E-1,6.0022917E-2,-6.710313E-2,-1.1158859E-1,6.75033E-2,-1.4459515E-1,9.488405E-3,5.793379E-2,-8.105131E-2,2.0186296E-2,1.00244716E-1,9.450583E-2,-6.333884E-2,6.830404E-2,-1.125774E-1,7.954457E-2,-8.962399E-3,6.0907144E-2,-1.613262E-1,4.6636812E-2,-1.0707612E-1,-7.672356E-2,8.6798534E-2,2.3211509E-2,-1.1374742E-1],"split_indices":[11499,5567,3372,5396,5491,10747,10338,7362,7912,6724,7880,6607,2216,6625,5784,884,0,4753,12350,6256,6134,12316,8348,5257,3696,11714,9699,5671,1146,317,10941,7835,0,5450,3316,6845,10419,7148,7115,12269,0,8265,9528,9882,7689,9036,1030,0,228,7206,274,11282,9842,4956,0,0,0,0,0,7233,9096,0,0,0,0,0,0,0,0,0,0,0,0,0,0,0,0,0,0,0,0,0,0,0,0,0,0,0,0,0,0,0,0,0,0,0,0,0,0,0,0,0,0,0,0],"split_type":[0,0,0,0,0,0,0,0,0,0,0,0,0,0,0,0,0,0,0,0,0,0,0,0,0,0,0,0,0,0,0,0,0,0,0,0,0,0,0,0,0,0,0,0,0,0,0,0,0,0,0,0,0,0,0,0,0,0,0,0,0,0,0,0,0,0,0,0,0,0,0,0,0,0,0,0,0,0,0,0,0,0,0,0,0,0,0,0,0,0,0,0,0,0,0,0,0,0,0,0,0,0,0,0,0],"sum_hessian":[6.72993E2,4.0009E2,2.7290298E2,2.1579553E2,1.8429446E2,7.602173E1,1.9688124E2,1.6935013E2,4.644541E1,7.920769E1,1.05086784E2,3.0001122E1,4.6020607E1,1.5750006E1,1.8113124E2,1.6771352E2,1.6366063E0,1.81106E1,2.8334812E1,4.8841255E1,3.036643E1,7.374034E1,3.134644E1,2.162508E1,8.376041E0,3.737714E1,8.64347E0,9.130182E0,6.6198235E0,3.2162862E0,1.7791495E2,1.6610713E2,1.6063852E0,9.43344E0,8.67716E0,2.106767E1,7.267141E0,4.0924736E1,7.916519E0,2.7342037E1,3.0243933E0,6.956602E1,4.1743274E0,2.1471159E1,9.875281E0,1.1126281E1,1.0498798E1,1.7938466E0,6.582195E0,3.3738247E1,3.6388934E0,3.351138E0,5.2923317E0,6.5303607E0,2.5998216E0,5.6190934E0,1.00073E0,2.212364E0,1.0039223E0,4.553854E0,1.733611E2,1.9276471E0,1.6417949E2,1.4761178E0,7.9573216E0,7.198475E0,1.4786853E0,2.0065882E1,1.0017893E0,5.1957006E0,2.0714402E0,3.9481895E1,1.4428396E0,5.930375E0,1.9861443E0,2.3450068E1,3.8919694E0,6.844702E1,1.1189927E0,2.4496522E0,1.724675E0,1.7073061E1,4.398098E0,8.485289E0,1.3899924E0,9.820453E0,1.3058279E0,5.1479225E0,5.3508763E0,1.0116239E0,5.570571E0,3.231466E1,1.4235878E0,1.5128131E0,2.1260803E0,2.3481145E0,1.0030236E0,1.1774255E0,4.1149063E0,1.1132914E0,5.4170694E0,1.9730403E0,2.580814E0,3.026429E0,1.7033467E2],"tree_param":{"num_deleted":"0","num_feature":"12960","num_nodes":"105","size_leaf_vector":"1"}},{"base_weights":[8.708278E-3,5.1153183E-1,-5.258892E-1,-6.1198395E-2,6.770013E-1,6.519215E-2,-9.1134983E-1,-5.626309E-1,4.6239546E-1,7.482305E-1,-1.4504519E-1,-3.809454E-1,6.324706E-1,5.6818753E-1,-9.964291E-1,-9.767375E-1,3.5304493E-1,6.3919586E-1,-1.0613616E0,7.967757E-1,-1.04490675E-1,-7.2160333E-1,8.842574E-1,-7.371751E-1,4.1441843E-1,7.71886E-1,-9.288956E-2,-5.8380115E-1,9.309417E-1,7.596634E-1,-1.0342441E0,-1.1280508E0,4.6917185E-1,6.6449356E-1,-1.2511356E-1,-7.7069825E-1,8.041057E-1,-1.6521786E-1,2.6912836E-2,8.194572E-1,-9.914576E-2,7.827269E-1,-8.136404E-1,-1.2680883E0,6.7802286E-1,1.613111E-2,9.644316E-2,-9.736407E-1,3.3381218E-1,-7.639682E-1,7.275321E-1,-6.73441E-1,8.600201E-1,3.545139E-3,-9.066259E-2,1.0134552E-1,1.5219197E-2,1.3085677E-2,9.110708E-2,5.593824E-1,-1.0699683E0,3.5113472E-2,-1.2836652E-1,7.705453E-2,-1.030379E-2,1.0046667E-1,-4.5869242E-2,-1.5349203E-1,4.8983745E-2,-5.3734284E-2,9.598065E-2,-1.05292514E-1,8.39197E-2,9.192802E-2,2.2045616E-3,-1.5472013E-1,2.7870549E-2,5.8454942E-2,-1.5352647E-1,8.093742E-2,1.0189183E-2,1.7410142E-2,-1.1533339E-1,-6.4648256E-2,7.971104E-2,4.083913E-2,-1.2673515E-1,1.004815E-1,-1.4003582E-2,-1.5485248E-1,4.7697943E-2,-9.9345185E-2,9.223937E-2,-1.929353E-2,8.323055E-2,2.709789E-2,-1.1040547E-1],"categories":[],"categories_nodes":[],"categories_segments":[],"categories_sizes":[],"default_left":[0,0,0,0,0,0,0,0,0,0,0,0,0,0,0,0,0,0,0,0,0,0,0,0,0,0,0,0,0,0,0,0,0,0,0,0,0,0,0,0,0,0,0,0,0,0,0,0,0,0,0,0,0,0,0,0,0,0,0,0,0,0,0,0,0,0,0,0,0,0,0,0,0,0,0,0,0,0,0,0,0,0,0,0,0,0,0,0,0,0,0,0,0,0,0,0,0],"id":16,"left_children":[1,3,5,7,9,11,13,15,17,19,21,23,25,27,29,31,33,35,37,39,41,43,45,47,49,51,-1,53,55,57,59,61,63,65,-1,67,69,-1,-1,71,-1,73,75,77,79,-1,-1,81,83,85,87,89,91,-1,-1,-1,-1,-1,-1,93,95,-1,-1,-1,-1,-1,-1,-1,-1,-1,-1,-1,-1,-1,-1,-1,-1,-1,-1,-1,-1,-1,-1,-1,-1,-1,-1,-1,-1,-1,-1,-1,-1,-1,-1,-1,-1],"loss_changes":[1.7113702E2,3.1132065E1,7.036675E1,1.9807844E1,1.5017029E1,3.1303862E1,2.4085999E1,1.4937099E1,1.0638454E1,9.789337E0,1.3183827E1,1.9948547E1,1.2560629E1,5.055434E0,1.2542908E1,6.3849335E0,7.185771E0,8.467118E0,3.7615867E0,9.815048E0,9.139143E0,1.1645167E1,3.1040478E-1,1.2542549E1,8.7048645E0,7.0113564E0,0E0,6.7190945E-1,3.9816284E-1,2.9099178E-1,1.0489792E1,6.09544E0,6.384402E-1,4.7797585E0,0E0,4.64851E0,6.9292374E0,0E0,0E0,9.004776E0,0E0,6.562352E-1,6.84223E0,6.089588E0,2.664895E-1,0E0,0E0,8.40361E0,4.816225E0,3.541689E0,4.4616013E0,4.224849E0,6.469227E0,0E0,0E0,0E0,0E0,0E0,0E0,1.0775698E0,8.082123E0,0E0,0E0,0E0,0E0,0E0,0E0,0E0,0E0,0E0,0E0,0E0,0E0,0E0,0E0,0E0,0E0,0E0,0E0,0E0,0E0,0E0,0E0,0E0,0E0,0E0,0E0,0E0,0E0,0E0,0E0,0E0,0E0,0E0,0E0,0E0,0E0],"parents":[2147483647,0,0,1,1,2,2,3,3,4,4,5,5,6,6,7,7,8,8,9,9,10,10,11,11,12,12,13,13,14,14,15,15,16,16,17,17,18,18,19,19,20,20,21,21,22,22,23,23,24,24,25,25,27,27,28,28,29,29,30,30,31,31,32,32,33,33,35,35,36,36,39,39,41,41,42,42,43,43,44,44,47,47,48,48,49,49,50,50,51,51,52,52,59,59,60,60],"right_children":[2,4,6,8,10,12,14,16,18,20,22,24,26,28,30,32,34,36,38,40,42,44,46,48,50,52,-1,54,56,58,60,62,64,66,-1,68,70,-1,-1,72,-1,74,76,78,80,-1,-1,82,84,86,88,90,92,-1,-1,-1,-1,-1,-1,94,96,-1,-1,-1,-1,-1,-1,-1,-1,-1,-1,-1,-1,-1,-1,-1,-1,-1,-1,-1,-1,-1,-1,-1,-1,-1,-1,-1,-1,-1,-1,-1,-1,-1,-1,-1,-1],"split_conditions":[5E0,2.587616E-1,7E0,3.6224964E-1,6.0934657E-1,3.4E1,4E0,3.9568838E-1,5.2280754E-1,1.2142032E0,5.22588E-1,4.8238635E-1,6.91E2,2.1503694E-1,7.478362E-3,-2.593394E-1,5.4829735E-1,-4.3559107E-1,7.24489E-1,7.56E2,-2.7581286E-2,5.0726414E-1,-3.6297163E-1,5.5261123E-1,-4.6110117E-1,-1.0970564E0,-9.288956E-2,1.04129866E-1,1.1390469E0,3.6070406E-1,3E0,-6.643798E-1,-4.2434725E-1,-5.99629E-1,-1.2511356E-1,-2.2333457E-1,5.8523312E-2,-1.6521786E-1,2.6912836E-2,8.182929E-3,-9.914576E-2,8.292316E-1,-2.8380814E-1,9.689422E-2,1.3111956E-1,1.613111E-2,9.644316E-2,3.503069E-2,2.530053E-1,1.466705E-1,7E0,4.6099988E-1,-6.0541046E-1,3.545139E-3,-9.066259E-2,1.0134552E-1,1.5219197E-2,1.3085677E-2,9.110708E-2,-3.5424033E-1,2.336121E-2,3.5113472E-2,-1.2836652E-1,7.705453E-2,-1.030379E-2,1.0046667E-1,-4.5869242E-2,-1.5349203E-1,4.8983745E-2,-5.3734284E-2,9.598065E-2,-1.05292514E-1,8.39197E-2,9.192802E-2,2.2045616E-3,-1.5472013E-1,2.7870549E-2,5.8454942E-2,-1.5352647E-1,8.093742E-2,1.0189183E-2,1.7410142E-2,-1.1533339E-1,-6.4648256E-2,7.971104E-2,4.083913E-2,-1.2673515E-1,1.004815E-1,-1.4003582E-2,-1.5485248E-1,4.7697943E-2,